{"learner":{"attributes":{"scikit_learn":"{\"_estimator_type\": \"classifier\"}"},"feature_names":["market_events","market_unique_items","market_views","market_clicks","market_likes","market_u2i","market_search","market_catalog","engagement_ratio","diversity_ratio","tech_interest","home_interest","sports_interest","tech_interest_ratio","home_interest_ratio","sports_interest_ratio","offers_seen","offers_unique","offers_seen_count","offers_shown","offers_redirect","offers_liked","offers_engagement","offers_engagement_ratio","offers_response_rate","retail_events","retail_unique_items","retail_views","retail_cart_adds","retail_purchase_intent"],"feature_types":["int","int","int","int","int","int","int","int","float","float","int","int","int","int","int","int","int","int","int","int","int","int","int","float","float","int","int","int","int","float"],"gradient_booster":{"model":{"cats":{"enc":[],"feature_segments":[],"sorted_idx":[]},"gbtree_model_param":{"num_parallel_tree":"1","num_trees":"750"},"iteration_indptr":[0,5,10,15,20,25,30,35,40,45,50,55,60,65,70,75,80,85,90,95,100,105,110,115,120,125,130,135,140,145,150,155,160,165,170,175,180,185,190,195,200,205,210,215,220,225,230,235,240,245,250,255,260,265,270,275,280,285,290,295,300,305,310,315,320,325,330,335,340,345,350,355,360,365,370,375,380,385,390,395,400,405,410,415,420,425,430,435,440,445,450,455,460,465,470,475,480,485,490,495,500,505,510,515,520,525,530,535,540,545,550,555,560,565,570,575,580,585,590,595,600,605,610,615,620,625,630,635,640,645,650,655,660,665,670,675,680,685,690,695,700,705,710,715,720,725,730,735,740,745,750],"tree_info":[0,1,2,3,4,0,1,2,3,4,0,1,2,3,4,0,1,2,3,4,0,1,2,3,4,0,1,2,3,4,0,1,2,3,4,0,1,2,3,4,0,1,2,3,4,0,1,2,3,4,0,1,2,3,4,0,1,2,3,4,0,1,2,3,4,0,1,2,3,4,0,1,2,3,4,0,1,2,3,4,0,1,2,3,4,0,1,2,3,4,0,1,2,3,4,0,1,2,3,4,0,1,2,3,4,0,1,2,3,4,0,1,2,3,4,0,1,2,3,4,0,1,2,3,4,0,1,2,3,4,0,1,2,3,4,0,1,2,3,4,0,1,2,3,4,0,1,2,3,4,0,1,2,3,4,0,1,2,3,4,0,1,2,3,4,0,1,2,3,4,0,1,2,3,4,0,1,2,3,4,0,1,2,3,4,0,1,2,3,4,0,1,2,3,4,0,1,2,3,4,0,1,2,3,4,0,1,2,3,4,0,1,2,3,4,0,1,2,3,4,0,1,2,3,4,0,1,2,3,4,0,1,2,3,4,0,1,2,3,4,0,1,2,3,4,0,1,2,3,4,0,1,2,3,4,0,1,2,3,4,0,1,2,3,4,0,1,2,3,4,0,1,2,3,4,0,1,2,3,4,0,1,2,3,4,0,1,2,3,4,0,1,2,3,4,0,1,2,3,4,0,1,2,3,4,0,1,2,3,4,0,1,2,3,4,0,1,2,3,4,0,1,2,3,4,0,1,2,3,4,0,1,2,3,4,0,1,2,3,4,0,1,2,3,4,0,1,2,3,4,0,1,2,3,4,0,1,2,3,4,0,1,2,3,4,0,1,2,3,4,0,1,2,3,4,0,1,2,3,4,0,1,2,3,4,0,1,2,3,4,0,1,2,3,4,0,1,2,3,4,0,1,2,3,4,0,1,2,3,4,0,1,2,3,4,0,1,2,3,4,0,1,2,3,4,0,1,2,3,4,0,1,2,3,4,0,1,2,3,4,0,1,2,3,4,0,1,2,3,4,0,1,2,3,4,0,1,2,3,4,0,1,2,3,4,0,1,2,3,4,0,1,2,3,4,0,1,2,3,4,0,1,2,3,4,0,1,2,3,4,0,1,2,3,4,0,1,2,3,4,0,1,2,3,4,0,1,2,3,4,0,1,2,3,4,0,1,2,3,4,0,1,2,3,4,0,1,2,3,4,0,1,2,3,4,0,1,2,3,4,0,1,2,3,4,0,1,2,3,4,0,1,2,3,4,0,1,2,3,4,0,1,2,3,4,0,1,2,3,4,0,1,2,3,4,0,1,2,3,4,0,1,2,3,4,0,1,2,3,4,0,1,2,3,4,0,1,2,3,4,0,1,2,3,4,0,1,2,3,4,0,1,2,3,4,0,1,2,3,4,0,1,2,3,4,0,1,2,3,4,0,1,2,3,4,0,1,2,3,4,0,1,2,3,4,0,1,2,3,4,0,1,2,3,4,0,1,2,3,4,0,1,2,3,4,0,1,2,3,4,0,1,2,3,4,0,1,2,3,4,0,1,2,3,4,0,1,2,3,4,0,1,2,3,4,0,1,2,3,4,0,1,2,3,4,0,1,2,3,4,0,1,2,3,4,0,1,2,3,4,0,1,2,3,4,0,1,2,3,4,0,1,2,3,4,0,1,2,3,4,0,1,2,3,4,0,1,2,3,4],"trees":[{"base_weights":[-5.655592E-1,-5.9263982E-2,9.0589166E-1,2.2520708E-1,-4.0604085E-2],"categories":[],"categories_nodes":[],"categories_segments":[],"categories_sizes":[],"default_left":[0,0,0,0,0],"id":0,"left_children":[1,-1,3,-1,-1],"loss_changes":[1.5937286E1,0E0,1.3947773E1,0E0,0E0],"parents":[2147483647,0,0,2,2],"right_children":[2,-1,4,-1,-1],"split_conditions":[2E1,-5.9263982E-2,3E1,2.2520708E-1,-4.0604085E-2],"split_indices":[0,0,0,0,0],"split_type":[0,0,0,0,0],"sum_hessian":[3.85481E2,3.7910123E2,6.379746E0,2.7950888E0,3.5846572E0],"tree_param":{"num_deleted":"0","num_feature":"30","num_nodes":"5","size_leaf_vector":"1"}},{"base_weights":[8.3481723E-1,1.5271888E0,-7.272778E-2,1.5781295E-1,-6.6171736E-2],"categories":[],"categories_nodes":[],"categories_segments":[],"categories_sizes":[],"default_left":[0,0,0,0,0],"id":1,"left_children":[1,3,-1,-1,-1],"loss_changes":[6.756319E2,4.9264465E1,0E0,0E0,0E0],"parents":[2147483647,0,0,1,1],"right_children":[2,4,-1,-1,-1],"split_conditions":[5E0,2E1,-7.272778E-2,1.5781295E-1,-6.6171736E-2],"split_indices":[16,0,0,0,0],"split_type":[0,0,0,0,0],"sum_hessian":[6.2266156E2,4.314508E2,1.9121075E2,4.2191104E2,9.539784E0],"tree_param":{"num_deleted":"0","num_feature":"30","num_nodes":"5","size_leaf_vector":"1"}},{"base_weights":[-5.8871526E-1,-5.9189178E-2,2.9293379E-2],"categories":[],"categories_nodes":[],"categories_segments":[],"categories_sizes":[],"default_left":[0,0,0],"id":2,"left_children":[1,-1,-1],"loss_changes":[1.2384338E0,0E0,0E0],"parents":[2147483647,0,0],"right_children":[2,-1,-1],"split_conditions":[6.8E1,-5.9189178E-2,2.9293379E-2],"split_indices":[0,0,0],"split_type":[0,0,0],"sum_hessian":[3.7929272E2,3.7825854E2,1.0341934E0],"tree_param":{"num_deleted":"0","num_feature":"30","num_nodes":"3","size_leaf_vector":"1"}},{"base_weights":[-5.3505427E-1,-5.9310295E-2,2.327182E0,2.5511897E-1,5.499938E-2],"categories":[],"categories_nodes":[],"categories_segments":[],"categories_sizes":[],"default_left":[0,0,0,0,0],"id":3,"left_children":[1,-1,3,-1,-1],"loss_changes":[5.720114E1,0E0,1.3363724E0,0E0,0E0],"parents":[2147483647,0,0,2,2],"right_children":[2,-1,4,-1,-1],"split_conditions":[3E1,-5.9310295E-2,6.8E1,2.5511897E-1,5.499938E-2],"split_indices":[0,0,0,0,0],"split_type":[0,0,0,0,0],"sum_hessian":[3.3496887E2,3.2908746E2,5.8813987E0,4.836283E0,1.0451155E0],"tree_param":{"num_deleted":"0","num_feature":"30","num_nodes":"5","size_leaf_vector":"1"}},{"base_weights":[-5.843609E-2,-6.288969E-2,2.2661347E0,2.3687056E-1,3.313743E-2,-3.0017963E-1,5.86494E-2,-3.750522E-2,-6.5419646E-3],"categories":[],"categories_nodes":[],"categories_segments":[],"categories_sizes":[],"default_left":[0,0,0,0,0,0,0,0,0],"id":4,"left_children":[1,-1,3,-1,5,7,-1,-1,-1],"loss_changes":[5.478386E2,0E0,1.8567993E1,0E0,1.0225596E0,3.743553E-2,0E0,0E0,0E0],"parents":[2147483647,0,0,2,2,4,4,5,5],"right_children":[2,-1,4,-1,6,8,-1,-1,-1],"split_conditions":[5E0,-6.288969E-2,2E1,2.3687056E-1,3.9E1,2.0661157E-2,5.86494E-2,-3.750522E-2,-6.5419646E-3],"split_indices":[16,0,0,0,0,23,0,0,0],"split_type":[0,0,0,0,0,0,0,0,0],"sum_hessian":[4.1105273E2,3.3064124E2,8.0411476E1,7.682196E1,3.589522E0,2.5256896E0,1.0638322E0,1.4618574E0,1.0638322E0],"tree_param":{"num_deleted":"0","num_feature":"30","num_nodes":"9","size_leaf_vector":"1"}},{"base_weights":[-5.520433E-1,-5.8341216E-2,3.6470482E-1,1.2380973E0,-2.7335238E-1,3.2223184E-2,1.5069477E-1,4.053725E-2,-4.8109215E-2],"categories":[],"categories_nodes":[],"categories_segments":[],"categories_sizes":[],"default_left":[0,0,0,0,0,0,0,0,0],"id":5,"left_children":[1,-1,3,5,7,-1,-1,-1,-1],"loss_changes":[8.19236E0,0E0,5.7974257E0,5.771885E-1,1.108647E0,0E0,0E0,0E0,0E0],"parents":[2147483647,0,0,2,2,3,3,4,4],"right_children":[2,-1,4,6,8,-1,-1,-1,-1],"split_conditions":[1.7E1,-5.8341216E-2,2.6E1,2E1,2E0,3.2223184E-2,1.5069477E-1,4.053725E-2,-4.8109215E-2],"split_indices":[2,0,2,2,3,0,0,0,0],"split_type":[0,0,0,0,0,0,0,0,0],"sum_hessian":[2.7647974E2,2.6768384E2,8.795873E0,3.316174E0,5.479699E0,1.2514707E0,2.0647035E0,1.0612028E0,4.418496E0],"tree_param":{"num_deleted":"0","num_feature":"30","num_nodes":"9","size_leaf_vector":"1"}},{"base_weights":[7.7645975E-1,1.321697E0,-7.022078E-2,1.3662459E-1,-6.461709E-2],"categories":[],"categories_nodes":[],"categories_segments":[],"categories_sizes":[],"default_left":[0,0,0,0,0],"id":6,"left_children":[1,3,-1,-1,-1],"loss_changes":[5.0715552E2,4.1129578E1,0E0,0E0,0E0],"parents":[2147483647,0,0,1,1],"right_children":[2,4,-1,-1,-1],"split_conditions":[5E0,2E1,-7.022078E-2,1.3662459E-1,-6.461709E-2],"split_indices":[18,0,0,0,0],"split_type":[0,0,0,0,0],"sum_hessian":[6.2689874E2,4.5809064E2,1.6880812E2,4.4824884E2,9.841792E0],"tree_param":{"num_deleted":"0","num_feature":"30","num_nodes":"5","size_leaf_vector":"1"}},{"base_weights":[-5.840251E-1],"categories":[],"categories_nodes":[],"categories_segments":[],"categories_sizes":[],"default_left":[0],"id":7,"left_children":[-1],"loss_changes":[0E0],"parents":[2147483647],"right_children":[-1],"split_conditions":[-5.840251E-2],"split_indices":[0],"split_type":[0],"sum_hessian":[3.0511957E2],"tree_param":{"num_deleted":"0","num_feature":"30","num_nodes":"1","size_leaf_vector":"1"}},{"base_weights":[-5.3049064E-1,-5.8565315E-2,1.9401786E0,2.052704E-1,5.6906242E-2],"categories":[],"categories_nodes":[],"categories_segments":[],"categories_sizes":[],"default_left":[0,0,0,0,0],"id":8,"left_children":[1,-1,3,-1,-1],"loss_changes":[5.0619354E1,0E0,9.103775E-2,0E0,0E0],"parents":[2147483647,0,0,2,2],"right_children":[2,-1,4,-1,-1],"split_conditions":[3E1,-5.8565315E-2,6.6E1,2.052704E-1,5.6906242E-2],"split_indices":[0,0,0,0,0],"split_type":[0,0,0,0,0],"sum_hessian":[3.620764E2,3.5491516E2,7.1612177E0,6.1586804E0,1.0025369E0],"tree_param":{"num_deleted":"0","num_feature":"30","num_nodes":"5","size_leaf_vector":"1"}},{"base_weights":[2.9647514E-1,-6.1478496E-1,1.8532778E0,-6.165793E-2,-1.0692608E-2,1.8938224E-1,-1.9718477E-1,-3.420901E-2,1.1303625E-2],"categories":[],"categories_nodes":[],"categories_segments":[],"categories_sizes":[],"default_left":[0,0,0,0,0,0,0,0,0],"id":9,"left_children":[1,3,5,-1,-1,-1,7,-1,-1],"loss_changes":[6.601017E2,2.0175171E-1,1.4652039E1,0E0,0E0,0E0,2.2908635E-1,0E0,0E0],"parents":[2147483647,0,0,1,1,2,2,6,6],"right_children":[2,4,6,-1,-1,-1,8,-1,-1],"split_conditions":[5E0,5.6E1,2E1,-6.165793E-2,-1.0692608E-2,1.8938224E-1,3.8E1,-3.420901E-2,1.1303625E-2],"split_indices":[18,0,0,0,0,0,0,0,0],"split_type":[0,0,0,0,0,0,0,0,0],"sum_hessian":[4.634989E2,2.9274716E2,1.7075175E2,2.9150317E2,1.2439692E0,1.675158E2,3.2359605E0,2.135657E0,1.1003032E0],"tree_param":{"num_deleted":"0","num_feature":"30","num_nodes":"9","size_leaf_vector":"1"}},{"base_weights":[-5.4882437E-1,-5.778869E-2,7.57144E-1,1.6090818E-1,-3.8246993E-2],"categories":[],"categories_nodes":[],"categories_segments":[],"categories_sizes":[],"default_left":[0,0,0,0,0],"id":10,"left_children":[1,-1,3,-1,-1],"loss_changes":[1.3387955E1,0E0,8.24717E0,0E0,0E0],"parents":[2147483647,0,0,2,2],"right_children":[2,-1,4,-1,-1],"split_conditions":[2E1,-5.778869E-2,3E1,1.6090818E-1,-3.8246993E-2],"split_indices":[0,0,0,0,0],"split_type":[0,0,0,0,0],"sum_hessian":[3.4020642E2,3.3334576E2,6.8606453E0,3.6900969E0,3.1705482E0],"tree_param":{"num_deleted":"0","num_feature":"30","num_nodes":"5","size_leaf_vector":"1"}},{"base_weights":[7.070579E-1,1.1775663E0,-6.806921E-2,1.2124672E-1,-6.2494732E-2],"categories":[],"categories_nodes":[],"categories_segments":[],"categories_sizes":[],"default_left":[0,0,0,0,0],"id":11,"left_children":[1,3,-1,-1,-1],"loss_changes":[4.2608075E2,3.138031E1,0E0,0E0,0E0],"parents":[2147483647,0,0,1,1],"right_children":[2,4,-1,-1,-1],"split_conditions":[5E0,2E1,-6.806921E-2,1.2124672E-1,-6.2494732E-2],"split_indices":[16,0,0,0,0],"split_type":[0,0,0,0,0],"sum_hessian":[6.5032166E2,4.857742E2,1.6454742E2,4.768683E2,8.905933E0],"tree_param":{"num_deleted":"0","num_feature":"30","num_nodes":"5","size_leaf_vector":"1"}},{"base_weights":[-5.759094E-1,-5.7682365E-2,-1.60119E-2],"categories":[],"categories_nodes":[],"categories_segments":[],"categories_sizes":[],"default_left":[0,0,0],"id":12,"left_children":[1,-1,-1],"loss_changes":[1.5350342E-2,0E0,0E0],"parents":[2147483647,0,0],"right_children":[2,-1,-1],"split_conditions":[3E1,-5.7682365E-2,-1.60119E-2],"split_indices":[5,0,0],"split_type":[0,0,0],"sum_hessian":[2.823149E2,2.8130905E2,1.0058461E0],"tree_param":{"num_deleted":"0","num_feature":"30","num_nodes":"3","size_leaf_vector":"1"}},{"base_weights":[-5.105257E-1,-5.7801943E-2,1.5161555E0,1.7595816E-1,-3.0903697E-2],"categories":[],"categories_nodes":[],"categories_segments":[],"categories_sizes":[],"default_left":[0,0,0,0,0],"id":13,"left_children":[1,-1,3,-1,-1],"loss_changes":[4.167742E1,0E0,4.9375973E0,0E0,0E0],"parents":[2147483647,0,0,2,2],"right_children":[2,-1,4,-1,-1],"split_conditions":[3E1,-5.7801943E-2,8.1E1,1.7595816E-1,-3.0903697E-2],"split_indices":[0,0,0,0,0],"split_type":[0,0,0,0,0],"sum_hessian":[2.9727878E2,2.8838947E2,8.889325E0,7.8749847E0,1.01434E0],"tree_param":{"num_deleted":"0","num_feature":"30","num_nodes":"5","size_leaf_vector":"1"}},{"base_weights":[3.2328242E-1,-6.0398784E-2,1.5499012E0,1.5823142E-1,-6.794224E-2,-4.43051E-2,5.952133E-2],"categories":[],"categories_nodes":[],"categories_segments":[],"categories_sizes":[],"default_left":[0,0,0,0,0,0,0],"id":14,"left_children":[1,-1,3,-1,5,-1,-1],"loss_changes":[4.705312E2,0E0,9.44281E0,0E0,1.3720145E0,0E0,0E0],"parents":[2147483647,0,0,2,2,4,4],"right_children":[2,-1,4,-1,6,-1,-1],"split_conditions":[5E0,-6.0398784E-2,2.3E1,1.5823142E-1,4.3E1,-4.43051E-2,5.952133E-2],"split_indices":[18,0,0,0,2,0,0],"split_type":[0,0,0,0,0,0,0],"sum_hessian":[4.1186453E2,2.3484192E2,1.7702263E2,1.7356723E2,3.455399E0,2.4190097E0,1.0363892E0],"tree_param":{"num_deleted":"0","num_feature":"30","num_nodes":"7","size_leaf_vector":"1"}},{"base_weights":[-5.446991E-1,-5.6116134E-1,3.1431597E-1,-5.6711805E-1,-7.936792E-2,9.4870485E-2,-1.3777669E-1,-5.6873154E-2,-1.0298631E-2,-4.3391787E-2,6.493687E-2,3.3561252E-2,-3.5878383E-2],"categories":[],"categories_nodes":[],"categories_segments":[],"categories_sizes":[],"default_left":[0,0,0,0,0,0,0,0,0,0,0,0,0],"id":15,"left_children":[1,3,5,7,9,-1,11,-1,-1,-1,-1,-1,-1],"loss_changes":[4.7177734E0,8.6034393E-1,2.0464587E0,1.7465973E-1,1.5776123E0,0E0,6.198176E-1,0E0,0E0,0E0,0E0,0E0,0E0],"parents":[2147483647,0,0,1,1,2,2,3,3,4,4,6,6],"right_children":[2,4,6,8,10,-1,12,-1,-1,-1,-1,-1,-1],"split_conditions":[1.7E1,3E0,5.5263156E-1,9E0,1E0,9.4870485E-2,1E0,-5.6873154E-2,-1.0298631E-2,-4.3391787E-2,6.493687E-2,3.3561252E-2,-3.5878383E-2],"split_indices":[5,3,9,7,17,0,3,0,0,0,0,0,0],"split_type":[0,0,0,0,0,0,0,0,0,0,0,0,0],"sum_hessian":[3.2014343E2,3.1446375E2,5.67968E0,3.1044836E2,4.015374E0,1.9062719E0,3.7734077E0,3.0914832E2,1.300077E0,2.9733305E0,1.0420437E0,1.035928E0,2.7374797E0],"tree_param":{"num_deleted":"0","num_feature":"30","num_nodes":"13","size_leaf_vector":"1"}},{"base_weights":[6.5882146E-1,1.0621997E0,-6.613683E-2,1.09508276E-1,-6.1284643E-2],"categories":[],"categories_nodes":[],"categories_segments":[],"categories_sizes":[],"default_left":[0,0,0,0,0],"id":16,"left_children":[1,3,-1,-1,-1],"loss_changes":[3.4538474E2,2.799945E1,0E0,0E0,0E0],"parents":[2147483647,0,0,1,1],"right_children":[2,4,-1,-1,-1],"split_conditions":[5E0,2E1,-6.613683E-2,1.09508276E-1,-6.1284643E-2],"split_indices":[16,0,0,0,0],"split_type":[0,0,0,0,0],"sum_hessian":[6.46247E2,4.9515115E2,1.5109586E2,4.859575E2,9.193662E0],"tree_param":{"num_deleted":"0","num_feature":"30","num_nodes":"5","size_leaf_vector":"1"}},{"base_weights":[-5.66083E-1,-5.7033766E-2,3.0891463E-2],"categories":[],"categories_nodes":[],"categories_segments":[],"categories_sizes":[],"default_left":[0,0,0],"id":17,"left_children":[1,-1,-1],"loss_changes":[1.2200623E0,0E0,0E0],"parents":[2147483647,0,0],"right_children":[2,-1,-1],"split_conditions":[6E0,-5.7033766E-2,3.0891463E-2],"split_indices":[3,0,0],"split_type":[0,0,0],"sum_hessian":[2.7939777E2,2.7839227E2,1.0054862E0],"tree_param":{"num_deleted":"0","num_feature":"30","num_nodes":"3","size_leaf_vector":"1"}},{"base_weights":[-5.4210156E-1,-5.7174087E-2,1.0073928E0,1.3517085E-1,-3.218047E-2],"categories":[],"categories_nodes":[],"categories_segments":[],"categories_sizes":[],"default_left":[0,0,0,0,0],"id":18,"left_children":[1,-1,3,-1,-1],"loss_changes":[1.5052994E1,0E0,3.3084874E0,0E0,0E0],"parents":[2147483647,0,0,2,2],"right_children":[2,-1,4,-1,-1],"split_conditions":[3E1,-5.7174087E-2,8.1E1,1.3517085E-1,-3.218047E-2],"split_indices":[0,0,0,0,0],"split_type":[0,0,0,0,0],"sum_hessian":[3.1422525E2,3.089466E2,5.278634E0,4.1791344E0,1.0994998E0],"tree_param":{"num_deleted":"0","num_feature":"30","num_nodes":"5","size_leaf_vector":"1"}},{"base_weights":[2.1463254E-1,-5.939602E-1,1.3454953E0,-5.957448E-2,-4.936202E-3,1.3686126E-1,-5.3238836E-3,-3.5753205E-2,5.6456663E-2],"categories":[],"categories_nodes":[],"categories_segments":[],"categories_sizes":[],"default_left":[0,0,0,0,0,0,0,0,0],"id":19,"left_children":[1,3,5,-1,-1,-1,7,-1,-1],"loss_changes":[4.4688757E2,2.4771118E-1,6.368164E0,0E0,0E0,0E0,1.0897257E0,0E0,0E0],"parents":[2147483647,0,0,1,1,2,2,6,6],"right_children":[2,4,6,-1,-1,-1,8,-1,-1],"split_conditions":[5E0,5.8E1,2.1E1,-5.957448E-2,-4.936202E-3,1.3686126E-1,3.9E1,-3.5753205E-2,5.6456663E-2],"split_indices":[18,0,0,0,0,0,1,0,0],"split_type":[0,0,0,0,0,0,0,0,0],"sum_hessian":[4.8684415E2,2.841472E2,2.0269696E2,2.8312552E2,1.0216814E0,1.9927351E2,3.4234493E0,2.346115E0,1.0773342E0],"tree_param":{"num_deleted":"0","num_feature":"30","num_nodes":"9","size_leaf_vector":"1"}},{"base_weights":[-5.24471E-1,-5.64453E-2,3.725652E-1,1.3330233E-1,-4.5936365E-2],"categories":[],"categories_nodes":[],"categories_segments":[],"categories_sizes":[],"default_left":[0,0,0,0,0],"id":20,"left_children":[1,-1,3,-1,-1],"loss_changes":[9.5379715E0,0E0,9.96074E0,0E0,0E0],"parents":[2147483647,0,0,2,2],"right_children":[2,-1,4,-1,-1],"split_conditions":[2E1,-5.64453E-2,3E1,1.3330233E-1,-4.5936365E-2],"split_indices":[0,0,0,0,0],"split_type":[0,0,0,0,0],"sum_hessian":[2.590751E2,2.4837546E2,1.0699642E1,4.6866255E0,6.0130167E0],"tree_param":{"num_deleted":"0","num_feature":"30","num_nodes":"5","size_leaf_vector":"1"}},{"base_weights":[6.137572E-1,9.8522437E-1,-6.447411E-2,9.991018E-1,-5.4042723E-2,1.0026113E-1,1.4089304E-2],"categories":[],"categories_nodes":[],"categories_segments":[],"categories_sizes":[],"default_left":[0,0,0,0,0,0,0],"id":21,"left_children":[1,3,-1,5,-1,-1,-1],"loss_changes":[3.085343E2,1.131485E1,0E0,1.3787537E0,0E0,0E0,0E0],"parents":[2147483647,0,0,1,1,3,3],"right_children":[2,4,-1,6,-1,-1,-1],"split_conditions":[5E0,2E1,-6.447411E-2,1.7E1,-5.4042723E-2,1.0026113E-1,1.4089304E-2],"split_indices":[16,1,0,5,0,0,0],"split_type":[0,0,0,0,0,0,0],"sum_hessian":[6.5762054E2,5.0791727E2,1.4970328E2,5.0368085E2,4.2363977E0,5.0146198E2,2.218897E0],"tree_param":{"num_deleted":"0","num_feature":"30","num_nodes":"7","size_leaf_vector":"1"}},{"base_weights":[-5.5964714E-1,-5.643601E-2,2.822727E-2],"categories":[],"categories_nodes":[],"categories_segments":[],"categories_sizes":[],"default_left":[0,0,0],"id":22,"left_children":[1,-1,-1],"loss_changes":[1.1490326E0,0E0,0E0],"parents":[2147483647,0,0],"right_children":[2,-1,-1],"split_conditions":[6.8E1,-5.643601E-2,2.822727E-2],"split_indices":[0,0,0],"split_type":[0,0,0],"sum_hessian":[2.484357E2,2.4738058E2,1.0551089E0],"tree_param":{"num_deleted":"0","num_feature":"30","num_nodes":"3","size_leaf_vector":"1"}},{"base_weights":[-5.0260186E-1,-5.6527782E-2,1.2189937E0,1.3202445E-1,3.0338813E-2],"categories":[],"categories_nodes":[],"categories_segments":[],"categories_sizes":[],"default_left":[0,0,0,0,0],"id":23,"left_children":[1,-1,3,-1,-1],"loss_changes":[2.9226883E1,0E0,4.9008656E-1,0E0,0E0],"parents":[2147483647,0,0,2,2],"right_children":[2,-1,4,-1,-1],"split_conditions":[3E1,-5.6527782E-2,6.3E1,1.3202445E-1,3.0338813E-2],"split_indices":[0,0,1,0,0],"split_type":[0,0,0,0,0],"sum_hessian":[2.634775E2,2.5487044E2,8.60709E0,7.3521304E0,1.2549596E0],"tree_param":{"num_deleted":"0","num_feature":"30","num_nodes":"5","size_leaf_vector":"1"}},{"base_weights":[-4.0834855E-2,-5.85329E-1,1.17296E0,-5.8737498E-2,-4.7866637E-3,1.2074029E-1,5.1631987E-2,-2.8087702E-1,5.763769E-2,-3.5883725E-2,-5.1376405E-3],"categories":[],"categories_nodes":[],"categories_segments":[],"categories_sizes":[],"default_left":[0,0,0,0,0,0,0,0,0,0,0],"id":24,"left_children":[1,3,5,-1,-1,-1,7,9,-1,-1,-1],"loss_changes":[2.4144954E2,2.4915314E-1,4.307495E0,0E0,0E0,0E0,9.324847E-1,4.196319E-2,0E0,0E0,0E0],"parents":[2147483647,0,0,1,1,2,2,6,6,7,7],"right_children":[2,4,6,-1,-1,-1,8,10,-1,-1,-1],"split_conditions":[5E0,2.4E1,2E1,-5.8737498E-2,-4.7866637E-3,1.2074029E-1,4.9E1,3.1746034E-2,5.763769E-2,-3.5883725E-2,-5.1376405E-3],"split_indices":[16,5,2,0,0,0,1,23,0,0,0],"split_type":[0,0,0,0,0,0,0,0,0,0,0],"sum_hessian":[3.632933E2,2.5114871E2,1.12144585E2,2.5010376E2,1.0449437E0,1.08728134E2,3.416455E0,2.3757668E0,1.0406884E0,1.3527031E0,1.0230635E0],"tree_param":{"num_deleted":"0","num_feature":"30","num_nodes":"11","size_leaf_vector":"1"}},{"base_weights":[-5.3007203E-1,-5.591851E-2,4.362111E-1,1.1241279E-1,-3.979208E-2],"categories":[],"categories_nodes":[],"categories_segments":[],"categories_sizes":[],"default_left":[0,0,0,0,0],"id":25,"left_children":[1,-1,3,-1,-1],"loss_changes":[8.14492E0,0E0,5.483258E0,0E0,0E0],"parents":[2147483647,0,0,2,2],"right_children":[2,-1,4,-1,-1],"split_conditions":[2E1,-5.591851E-2,3E1,1.1241279E-1,-3.979208E-2],"split_indices":[0,0,0,0,0],"split_type":[0,0,0,0,0],"sum_hessian":[2.7985986E2,2.720836E2,7.7762766E0,4.071121E0,3.7051556E0],"tree_param":{"num_deleted":"0","num_feature":"30","num_nodes":"5","size_leaf_vector":"1"}},{"base_weights":[5.5644155E-1,9.015004E-1,-6.2983006E-2,9.300086E-2,-5.912484E-2],"categories":[],"categories_nodes":[],"categories_segments":[],"categories_sizes":[],"default_left":[0,0,0,0,0],"id":26,"left_children":[1,3,-1,-1,-1],"loss_changes":[2.6979333E2,2.2249878E1,0E0,0E0,0E0],"parents":[2147483647,0,0,1,1],"right_children":[2,4,-1,-1,-1],"split_conditions":[5E0,2E1,-6.2983006E-2,9.300086E-2,-5.912484E-2],"split_indices":[16,0,0,0,0],"split_type":[0,0,0,0,0],"sum_hessian":[6.5671674E2,5.0892288E2,1.4779382E2,4.9975565E2,9.16723E0],"tree_param":{"num_deleted":"0","num_feature":"30","num_nodes":"5","size_leaf_vector":"1"}},{"base_weights":[-5.5480707E-1,-5.589006E-2,2.9767785E-2],"categories":[],"categories_nodes":[],"categories_segments":[],"categories_sizes":[],"default_left":[0,0,0],"id":27,"left_children":[1,-1,-1],"loss_changes":[1.1607285E0,0E0,0E0],"parents":[2147483647,0,0],"right_children":[2,-1,-1],"split_conditions":[1.22E2,-5.589006E-2,2.9767785E-2],"split_indices":[0,0,0],"split_type":[0,0,0],"sum_hessian":[2.8394174E2,2.8292755E2,1.0142009E0],"tree_param":{"num_deleted":"0","num_feature":"30","num_nodes":"3","size_leaf_vector":"1"}},{"base_weights":[-4.9645108E-1,-5.59614E-2,1.1030899E0,1.1615298E-1,2.82527E-2],"categories":[],"categories_nodes":[],"categories_segments":[],"categories_sizes":[],"default_left":[0,0,0,0,0],"id":28,"left_children":[1,-1,3,-1,-1],"loss_changes":[2.9535507E1,0E0,2.0938873E-1,0E0,0E0],"parents":[2147483647,0,0,2,2],"right_children":[2,-1,4,-1,-1],"split_conditions":[3E1,-5.59614E-2,6E0,1.1615298E-1,2.82527E-2],"split_indices":[0,0,3,0,0],"split_type":[0,0,0,0,0],"sum_hessian":[2.85229E2,2.7501913E2,1.0209859E1,9.143163E0,1.066696E0],"tree_param":{"num_deleted":"0","num_feature":"30","num_nodes":"5","size_leaf_vector":"1"}},{"base_weights":[1.5215828E-1,-5.781673E-1,1.0775558E0,-5.7912745E-2,-1.708564E-2,1.09523945E-1,-9.975743E-2,1.9365449E-2,-3.633846E-2],"categories":[],"categories_nodes":[],"categories_segments":[],"categories_sizes":[],"default_left":[0,0,0,0,0,0,0,0,0],"id":29,"left_children":[1,3,5,-1,-1,-1,7,-1,-1],"loss_changes":[3.067408E2,3.0517578E-4,4.2759705E0,0E0,0E0,0E0,3.7035426E-1,0E0,0E0],"parents":[2147483647,0,0,1,1,2,2,6,6],"right_children":[2,4,6,-1,-1,-1,8,-1,-1],"split_conditions":[5E0,4.3E1,1.8E1,-5.7912745E-2,-1.708564E-2,1.09523945E-1,2.3809524E-2,1.9365449E-2,-3.633846E-2],"split_indices":[16,2,2,0,0,0,8,0,0],"split_type":[0,0,0,0,0,0,0,0,0],"sum_hessian":[4.5194324E2,2.5280457E2,1.9913867E2,2.5178922E2,1.0153431E0,1.9626048E2,2.8781893E0,1.4877621E0,1.3904272E0],"tree_param":{"num_deleted":"0","num_feature":"30","num_nodes":"9","size_leaf_vector":"1"}},{"base_weights":[-5.141802E-1,-5.5361506E-2,3.2838798E-1,1.0575881E-1,-4.3419816E-2],"categories":[],"categories_nodes":[],"categories_segments":[],"categories_sizes":[],"default_left":[0,0,0,0,0],"id":30,"left_children":[1,-1,3,-1,-1],"loss_changes":[7.9604187E0,0E0,6.6287775E0,0E0,0E0],"parents":[2147483647,0,0,2,2],"right_children":[2,-1,4,-1,-1],"split_conditions":[2E1,-5.5361506E-2,3E1,1.0575881E-1,-4.3419816E-2],"split_indices":[0,0,0,0,0],"split_type":[0,0,0,0,0],"sum_hessian":[2.3310849E2,2.2301369E2,1.0094802E1,4.96261E0,5.1321917E0],"tree_param":{"num_deleted":"0","num_feature":"30","num_nodes":"5","size_leaf_vector":"1"}},{"base_weights":[5.248943E-1,8.45431E-1,-6.1615724E-2,8.700312E-2,-5.6942202E-2],"categories":[],"categories_nodes":[],"categories_segments":[],"categories_sizes":[],"default_left":[0,0,0,0,0],"id":31,"left_children":[1,3,-1,-1,-1],"loss_changes":[2.2387552E2,1.7103699E1,0E0,0E0,0E0],"parents":[2147483647,0,0,1,1],"right_children":[2,4,-1,-1,-1],"split_conditions":[5E0,2E1,-6.1615724E-2,8.700312E-2,-5.6942202E-2],"split_indices":[16,0,0,0,0],"split_type":[0,0,0,0,0],"sum_hessian":[6.096773E2,4.7617294E2,1.3350432E2,4.684137E2,7.7592545E0],"tree_param":{"num_deleted":"0","num_feature":"30","num_nodes":"5","size_leaf_vector":"1"}},{"base_weights":[-5.459963E-1,-5.5245217E-2,2.9266065E-2],"categories":[],"categories_nodes":[],"categories_segments":[],"categories_sizes":[],"default_left":[0,0,0],"id":32,"left_children":[1,-1,-1],"loss_changes":[1.1375275E0,0E0,0E0],"parents":[2147483647,0,0],"right_children":[2,-1,-1],"split_conditions":[2.8E1,-5.5245217E-2,2.9266065E-2],"split_indices":[7,0,0],"split_type":[0,0,0],"sum_hessian":[1.7923633E2,1.782058E2,1.0305388E0],"tree_param":{"num_deleted":"0","num_feature":"30","num_nodes":"3","size_leaf_vector":"1"}},{"base_weights":[-4.8568937E-1,-5.5413272E-2,9.4526094E-1,1.1081485E-1,-3.396883E-2],"categories":[],"categories_nodes":[],"categories_segments":[],"categories_sizes":[],"default_left":[0,0,0,0,0],"id":33,"left_children":[1,-1,3,-1,-1],"loss_changes":[2.6656078E1,0E0,3.0030165E0,0E0,0E0],"parents":[2147483647,0,0,2,2],"right_children":[2,-1,4,-1,-1],"split_conditions":[3E1,-5.5413272E-2,1.22E2,1.1081485E-1,-3.396883E-2],"split_indices":[0,0,0,0,0],"split_type":[0,0,0,0,0],"sum_hessian":[2.65822E2,2.5427269E2,1.1549283E1,1.0372056E1,1.1772273E0],"tree_param":{"num_deleted":"0","num_feature":"30","num_nodes":"5","size_leaf_vector":"1"}},{"base_weights":[1.7862818E-1,-5.693906E-1,9.883136E-1,-5.7146933E-2,-1.0001743E-2,1.0031575E-1,1.7527616E-2,-3.380849E-2,5.6391086E-2],"categories":[],"categories_nodes":[],"categories_segments":[],"categories_sizes":[],"default_left":[0,0,0,0,0,0,0,0,0],"id":34,"left_children":[1,3,5,-1,-1,-1,7,-1,-1],"loss_changes":[2.7159067E2,1.7041016E-1,3.0842743E0,0E0,0E0,0E0,1.0182884E0,0E0,0E0],"parents":[2147483647,0,0,1,1,2,2,6,6],"right_children":[2,4,6,-1,-1,-1,8,-1,-1],"split_conditions":[5E0,5.6E1,2E1,-5.7146933E-2,-1.0001743E-2,1.0031575E-1,4.5E1,-3.380849E-2,5.6391086E-2],"split_indices":[16,0,0,0,0,0,0,0,0],"split_type":[0,0,0,0,0,0,0,0,0],"sum_hessian":[4.4649197E2,2.3223816E2,2.1425381E2,2.3099759E2,1.2405632E0,2.1099425E2,3.2595758E0,2.2054162E0,1.0541596E0],"tree_param":{"num_deleted":"0","num_feature":"30","num_nodes":"9","size_leaf_vector":"1"}},{"base_weights":[-5.060098E-1,-5.4861337E-2,3.3917513E-1,9.708377E-2,-4.217572E-2],"categories":[],"categories_nodes":[],"categories_segments":[],"categories_sizes":[],"default_left":[0,0,0,0,0],"id":35,"left_children":[1,-1,3,-1,-1],"loss_changes":[8.107899E0,0E0,5.780998E0,0E0,0E0],"parents":[2147483647,0,0,2,2],"right_children":[2,-1,4,-1,-1],"split_conditions":[2E1,-5.4861337E-2,3E1,9.708377E-2,-4.217572E-2],"split_indices":[0,0,0,0,0],"split_type":[0,0,0,0,0],"sum_hessian":[2.1900241E2,2.0882689E2,1.0175519E1,5.409309E0,4.76621E0],"tree_param":{"num_deleted":"0","num_feature":"30","num_nodes":"5","size_leaf_vector":"1"}},{"base_weights":[6.279711E-1,7.984385E-1,-5.999803E-2,8.206182E-2,-5.520792E-2],"categories":[],"categories_nodes":[],"categories_segments":[],"categories_sizes":[],"default_left":[0,0,0,0,0],"id":36,"left_children":[1,3,-1,-1,-1],"loss_changes":[1.1280411E2,1.4580017E1,0E0,0E0,0E0],"parents":[2147483647,0,0,1,1],"right_children":[2,4,-1,-1,-1],"split_conditions":[5E0,2E1,-5.999803E-2,8.206182E-2,-5.520792E-2],"split_indices":[16,0,0,0,0],"split_type":[0,0,0,0,0],"sum_hessian":[5.356043E2,4.7062125E2,6.498307E1,4.634031E2,7.2181454E0],"tree_param":{"num_deleted":"0","num_feature":"30","num_nodes":"5","size_leaf_vector":"1"}},{"base_weights":[-5.4299283E-1,-5.4843463E-2,3.0794188E-2],"categories":[],"categories_nodes":[],"categories_segments":[],"categories_sizes":[],"default_left":[0,0,0],"id":37,"left_children":[1,-1,-1],"loss_changes":[1.1639252E0,0E0,0E0],"parents":[2147483647,0,0],"right_children":[2,-1,-1],"split_conditions":[1.2E1,-5.4843463E-2,3.0794188E-2],"split_indices":[7,0,0],"split_type":[0,0,0],"sum_hessian":[2.138839E2,2.1287802E2,1.0058728E0],"tree_param":{"num_deleted":"0","num_feature":"30","num_nodes":"3","size_leaf_vector":"1"}},{"base_weights":[-5.066753E-1,-5.4897036E-2,7.986865E-1,9.733832E-2,-7.7010836E-3],"categories":[],"categories_nodes":[],"categories_segments":[],"categories_sizes":[],"default_left":[0,0,0,0,0],"id":38,"left_children":[1,-1,3,-1,-1],"loss_changes":[1.2012653E1,0E0,1.1437912E0,0E0,0E0],"parents":[2147483647,0,0,2,2],"right_children":[2,-1,4,-1,-1],"split_conditions":[3E1,-5.4897036E-2,6.5E1,9.733832E-2,-7.7010836E-3],"split_indices":[0,0,1,0,0],"split_type":[0,0,0,0,0],"sum_hessian":[2.0863843E2,2.0265176E2,5.986667E0,4.897993E0,1.0886741E0],"tree_param":{"num_deleted":"0","num_feature":"30","num_nodes":"5","size_leaf_vector":"1"}},{"base_weights":[2.0590879E-1,-5.615485E-1,9.1771626E-1,-5.6408405E-2,-6.471819E-3,9.2914045E-2,-7.537131E-2,-2.2555105E-2,1.2432654E-2],"categories":[],"categories_nodes":[],"categories_segments":[],"categories_sizes":[],"default_left":[0,0,0,0,0,0,0,0,0],"id":39,"left_children":[1,3,5,-1,-1,-1,7,-1,-1],"loss_changes":[2.1968782E2,2.0747757E-1,2.4358673E0,0E0,0E0,0E0,1.2690759E-1,0E0,0E0],"parents":[2147483647,0,0,1,1,2,2,6,6],"right_children":[2,4,6,-1,-1,-1,8,-1,-1],"split_conditions":[5E0,2.3E1,2E1,-5.6408405E-2,-6.471819E-3,9.2914045E-2,2.4E1,-2.2555105E-2,1.2432654E-2],"split_indices":[16,5,2,0,0,0,17,0,0],"split_type":[0,0,0,0,0,0,0,0,0],"sum_hessian":[4.0020773E2,1.9267755E2,2.0753018E2,1.9156453E2,1.1130283E0,2.0523363E2,2.2965562E0,1.2369016E0,1.0596547E0],"tree_param":{"num_deleted":"0","num_feature":"30","num_nodes":"9","size_leaf_vector":"1"}},{"base_weights":[-5.0517136E-1,-5.4341864E-2,3.933845E-1,8.471894E-2,-4.1474935E-2],"categories":[],"categories_nodes":[],"categories_segments":[],"categories_sizes":[],"default_left":[0,0,0,0,0],"id":40,"left_children":[1,-1,3,-1,-1],"loss_changes":[6.9478264E0,0E0,3.4979396E0,0E0,0E0],"parents":[2147483647,0,0,2,2],"right_children":[2,-1,4,-1,-1],"split_conditions":[2E1,-5.4341864E-2,2.9E1,8.471894E-2,-4.1474935E-2],"split_indices":[0,0,1,0,0],"split_type":[0,0,0,0,0],"sum_hessian":[1.9494357E2,1.8736362E2,7.579949E0,4.8231797E0,2.7567692E0],"tree_param":{"num_deleted":"0","num_feature":"30","num_nodes":"5","size_leaf_vector":"1"}},{"base_weights":[4.7847727E-1,7.57946E-1,-5.9290744E-2,7.791655E-2,-5.4015648E-2],"categories":[],"categories_nodes":[],"categories_segments":[],"categories_sizes":[],"default_left":[0,0,0,0,0],"id":41,"left_children":[1,3,-1,-1,-1],"loss_changes":[1.7028665E2,1.2824799E1,0E0,0E0,0E0],"parents":[2147483647,0,0,1,1],"right_children":[2,4,-1,-1,-1],"split_conditions":[5E0,2E1,-5.9290744E-2,7.791655E-2,-5.4015648E-2],"split_indices":[16,0,0,0,0],"split_type":[0,0,0,0,0],"sum_hessian":[5.662237E2,4.4931363E2,1.1691007E2,4.4248038E2,6.8332562E0],"tree_param":{"num_deleted":"0","num_feature":"30","num_nodes":"5","size_leaf_vector":"1"}},{"base_weights":[-5.3880984E-1,-5.4405022E-2,2.8378842E-2],"categories":[],"categories_nodes":[],"categories_segments":[],"categories_sizes":[],"default_left":[0,0,0],"id":42,"left_children":[1,-1,-1],"loss_changes":[1.1126175E0,0E0,0E0],"parents":[2147483647,0,0],"right_children":[2,-1,-1],"split_conditions":[1.7E1,-5.4405022E-2,2.8378842E-2],"split_indices":[6,0,0],"split_type":[0,0,0],"sum_hessian":[2.21286E2,2.2022168E2,1.0643207E0],"tree_param":{"num_deleted":"0","num_feature":"30","num_nodes":"3","size_leaf_vector":"1"}},{"base_weights":[-4.7976437E-1,-5.4447602E-2,8.103848E-1,9.105278E-2,-9.669562E-3],"categories":[],"categories_nodes":[],"categories_segments":[],"categories_sizes":[],"default_left":[0,0,0,0,0],"id":43,"left_children":[1,-1,3,-1,-1],"loss_changes":[2.0140041E1,0E0,1.1482458E0,0E0,0E0],"parents":[2147483647,0,0,2,2],"right_children":[2,-1,4,-1,-1],"split_conditions":[3E1,-5.4447602E-2,1E0,9.105278E-2,-9.669562E-3],"split_indices":[0,0,6,0,0],"split_type":[0,0,0,0,0],"sum_hessian":[2.3494858E2,2.2427719E2,1.0671384E1,9.606962E0,1.0644221E0],"tree_param":{"num_deleted":"0","num_feature":"30","num_nodes":"5","size_leaf_vector":"1"}},{"base_weights":[1.984802E-1,-5.568531E-2,8.56578E-1,8.692136E-2,-1.2492291E-1,1.8622067E-2,-3.5695683E-2],"categories":[],"categories_nodes":[],"categories_segments":[],"categories_sizes":[],"default_left":[0,0,0,0,0,0,0],"id":44,"left_children":[1,-1,3,-1,5,-1,-1],"loss_changes":[2.039475E2,0E0,2.8263092E0,0E0,3.3068097E-1,0E0,0E0],"parents":[2147483647,0,0,2,2,4,4],"right_children":[2,-1,4,-1,6,-1,-1],"split_conditions":[5E0,-5.568531E-2,2.1E1,8.692136E-2,4.1666668E-2,1.8622067E-2,-3.5695683E-2],"split_indices":[16,0,0,0,8,0,0],"split_type":[0,0,0,0,0,0,0],"sum_hessian":[4.083289E2,1.901908E2,2.181381E2,2.154785E2,2.6596036E0,1.2204695E0,1.4391341E0],"tree_param":{"num_deleted":"0","num_feature":"30","num_nodes":"7","size_leaf_vector":"1"}},{"base_weights":[-4.939083E-1,-5.3946417E-2,2.8199926E-1,8.515569E-2,-4.1318256E-2],"categories":[],"categories_nodes":[],"categories_segments":[],"categories_sizes":[],"default_left":[0,0,0,0,0],"id":45,"left_children":[1,-1,3,-1,-1],"loss_changes":[6.637146E0,0E0,4.640419E0,0E0,0E0],"parents":[2147483647,0,0,2,2],"right_children":[2,-1,4,-1,-1],"split_conditions":[2E1,-5.3946417E-2,3E1,8.515569E-2,-4.1318256E-2],"split_indices":[0,0,0,0,0],"split_type":[0,0,0,0,0],"sum_hessian":[1.8246623E2,1.7263503E2,9.8312E0,5.2802153E0,4.5509844E0],"tree_param":{"num_deleted":"0","num_feature":"30","num_nodes":"5","size_leaf_vector":"1"}},{"base_weights":[4.749745E-1,7.3066837E-1,-5.8274385E-2,7.440279E-2,-5.0133564E-2],"categories":[],"categories_nodes":[],"categories_segments":[],"categories_sizes":[],"default_left":[0,0,0,0,0],"id":46,"left_children":[1,3,-1,-1,-1],"loss_changes":[1.4635486E2,7.532242E0,0E0,0E0,0E0],"parents":[2147483647,0,0,1,1],"right_children":[2,4,-1,-1,-1],"split_conditions":[5E0,2E1,-5.8274385E-2,7.440279E-2,-5.0133564E-2],"split_indices":[18,0,0,0,0],"split_type":[0,0,0,0,0],"sum_hessian":[5.385746E2,4.339744E2,1.046002E2,4.2971082E2,4.2635756E0],"tree_param":{"num_deleted":"0","num_feature":"30","num_nodes":"5","size_leaf_vector":"1"}},{"base_weights":[-5.325356E-1,-5.3903025E-2,2.939625E-2],"categories":[],"categories_nodes":[],"categories_segments":[],"categories_sizes":[],"default_left":[0,0,0],"id":47,"left_children":[1,-1,-1],"loss_changes":[1.0991249E0,0E0,0E0],"parents":[2147483647,0,0],"right_children":[2,-1,-1],"split_conditions":[3.1E1,-5.3903025E-2,2.939625E-2],"split_indices":[7,0,0],"split_type":[0,0,0],"sum_hessian":[1.7424321E2,1.7322978E2,1.0134283E0],"tree_param":{"num_deleted":"0","num_feature":"30","num_nodes":"3","size_leaf_vector":"1"}},{"base_weights":[-4.7169757E-1,-5.4012354E-2,8.42194E-2],"categories":[],"categories_nodes":[],"categories_segments":[],"categories_sizes":[],"default_left":[0,0,0],"id":48,"left_children":[1,-1,-1],"loss_changes":[2.034224E1,0E0,0E0],"parents":[2147483647,0,0],"right_children":[2,-1,-1],"split_conditions":[3E1,-5.4012354E-2,8.42194E-2],"split_indices":[0,0,0],"split_type":[0,0,0],"sum_hessian":[2.2020576E2,2.0986513E2,1.0340623E1],"tree_param":{"num_deleted":"0","num_feature":"30","num_nodes":"3","size_leaf_vector":"1"}},{"base_weights":[1.5477107E-1,-5.495505E-1,8.0346197E-1,-5.521651E-2,-4.9481015E-3,8.1915304E-2,-2.1815264E-1,-3.8432505E-2,1.2087394E-2],"categories":[],"categories_nodes":[],"categories_segments":[],"categories_sizes":[],"default_left":[0,0,0,0,0,0,0,0,0],"id":49,"left_children":[1,3,5,-1,-1,-1,7,-1,-1],"loss_changes":[1.7666205E2,2.1523285E-1,3.4037476E0,0E0,0E0,0E0,2.6239187E-1,0E0,0E0],"parents":[2147483647,0,0,1,1,2,2,6,6],"right_children":[2,4,6,-1,-1,-1,8,-1,-1],"split_conditions":[5E0,2.3E1,2.3E1,-5.521651E-2,-4.9481015E-3,8.1915304E-2,3.3E1,-3.8432505E-2,1.2087394E-2],"split_indices":[18,5,0,0,0,0,1,0,0],"split_type":[0,0,0,0,0,0,0,0,0],"sum_hessian":[3.8469827E2,1.8451375E2,2.0018452E2,1.8345041E2,1.0633348E0,1.9735156E2,2.8329616E0,1.8114662E0,1.0214953E0],"tree_param":{"num_deleted":"0","num_feature":"30","num_nodes":"9","size_leaf_vector":"1"}},{"base_weights":[-4.933728E-1,-5.350216E-2,2.3027618E-1,7.3615514E-2,-3.9363716E-2],"categories":[],"categories_nodes":[],"categories_segments":[],"categories_sizes":[],"default_left":[0,0,0,0,0],"id":50,"left_children":[1,-1,3,-1,-1],"loss_changes":[5.158531E0,0E0,3.380157E0,0E0,0E0],"parents":[2147483647,0,0,2,2],"right_children":[2,-1,4,-1,-1],"split_conditions":[2E1,-5.350216E-2,3E1,7.3615514E-2,-3.9363716E-2],"split_indices":[0,0,0,0,0],"split_type":[0,0,0,0,0],"sum_hessian":[1.660696E2,1.5727829E2,8.791311E0,4.7555413E0,4.0357695E0],"tree_param":{"num_deleted":"0","num_feature":"30","num_nodes":"5","size_leaf_vector":"1"}},{"base_weights":[5.501282E-1,6.943308E-1,-5.6997497E-2,7.146474E-2,-5.2266665E-2],"categories":[],"categories_nodes":[],"categories_segments":[],"categories_sizes":[],"default_left":[0,0,0,0,0],"id":51,"left_children":[1,3,-1,-1,-1],"loss_changes":[7.849968E1,1.0976883E1,0E0,0E0,0E0],"parents":[2147483647,0,0,1,1],"right_children":[2,4,-1,-1,-1],"split_conditions":[5E0,2E1,-5.6997497E-2,7.146474E-2,-5.2266665E-2],"split_indices":[16,0,0,0,0],"split_type":[0,0,0,0,0],"sum_hessian":[4.8255048E2,4.2784912E2,5.4701366E1,4.212299E2,6.6192145E0],"tree_param":{"num_deleted":"0","num_feature":"30","num_nodes":"5","size_leaf_vector":"1"}},{"base_weights":[-5.297298E-1,-5.3580415E-2,2.9904692E-2],"categories":[],"categories_nodes":[],"categories_segments":[],"categories_sizes":[],"default_left":[0,0,0],"id":52,"left_children":[1,-1,-1],"loss_changes":[1.1097298E0,0E0,0E0],"parents":[2147483647,0,0],"right_children":[2,-1,-1],"split_conditions":[2E1,-5.3580415E-2,2.9904692E-2],"split_indices":[7,0,0],"split_type":[0,0,0],"sum_hessian":[1.8760527E2,1.8659119E2,1.014083E0],"tree_param":{"num_deleted":"0","num_feature":"30","num_nodes":"3","size_leaf_vector":"1"}},{"base_weights":[-4.5624587E-1,-5.3593893E-2,7.146777E-1,8.2172655E-2,-2.1243399E-2],"categories":[],"categories_nodes":[],"categories_segments":[],"categories_sizes":[],"default_left":[0,0,0,0,0],"id":53,"left_children":[1,-1,3,-1,-1],"loss_changes":[1.8173119E1,0E0,1.4227948E0,0E0,0E0],"parents":[2147483647,0,0,2,2],"right_children":[2,-1,4,-1,-1],"split_conditions":[3E1,-5.3593893E-2,8.1E1,8.2172655E-2,-2.1243399E-2],"split_indices":[0,0,0,0,0],"split_type":[0,0,0,0,0],"sum_hessian":[1.8964664E2,1.7806952E2,1.1577119E1,1.0480642E1,1.096476E0],"tree_param":{"num_deleted":"0","num_feature":"30","num_nodes":"5","size_leaf_vector":"1"}},{"base_weights":[1.5689869E-1,-5.4562505E-2,7.651719E-1,7.7871986E-2,-8.032827E-3,-3.440524E-2,5.579401E-2],"categories":[],"categories_nodes":[],"categories_segments":[],"categories_sizes":[],"default_left":[0,0,0,0,0,0,0],"id":54,"left_children":[1,-1,3,-1,5,-1,-1],"loss_changes":[1.5939542E2,0E0,2.0992813E0,0E0,1.0345373E0,0E0,0E0],"parents":[2147483647,0,0,2,2,4,4],"right_children":[2,-1,4,-1,6,-1,-1],"split_conditions":[5E0,-5.4562505E-2,2.1E1,7.7871986E-2,6.8E1,-3.440524E-2,5.579401E-2],"split_indices":[16,0,0,0,0,0,0],"split_type":[0,0,0,0,0,0,0],"sum_hessian":[3.710293E2,1.7222334E2,1.9880595E2,1.9537549E2,3.4304638E0,2.3985457E0,1.031918E0],"tree_param":{"num_deleted":"0","num_feature":"30","num_nodes":"7","size_leaf_vector":"1"}},{"base_weights":[-4.918091E-1,-5.317188E-2,2.7232587E-1,6.780528E-2,-4.0888663E-2],"categories":[],"categories_nodes":[],"categories_segments":[],"categories_sizes":[],"default_left":[0,0,0,0,0],"id":55,"left_children":[1,-1,3,-1,-1],"loss_changes":[4.925564E0,0E0,2.6106405E0,0E0,0E0],"parents":[2147483647,0,0,2,2],"right_children":[2,-1,4,-1,-1],"split_conditions":[2E1,-5.317188E-2,3E1,6.780528E-2,-4.0888663E-2],"split_indices":[0,0,0,0,0],"split_type":[0,0,0,0,0],"sum_hessian":[1.5576498E2,1.4832248E2,7.4425106E0,4.667317E0,2.7751935E0],"tree_param":{"num_deleted":"0","num_feature":"30","num_nodes":"5","size_leaf_vector":"1"}},{"base_weights":[4.2388904E-1,6.6961205E-1,-5.6645215E-2,6.890441E-2,-5.0872672E-2],"categories":[],"categories_nodes":[],"categories_segments":[],"categories_sizes":[],"default_left":[0,0,0,0,0],"id":56,"left_children":[1,3,-1,-1,-1],"loss_changes":[1.2051498E2,9.41777E0,0E0,0E0,0E0],"parents":[2147483647,0,0,1,1],"right_children":[2,4,-1,-1,-1],"split_conditions":[5E0,2E1,-5.6645215E-2,6.890441E-2,-5.0872672E-2],"split_indices":[16,0,0,0,0],"split_type":[0,0,0,0,0],"sum_hessian":[4.926751E2,3.9499338E2,9.7681725E1,3.8899374E2,5.999657E0],"tree_param":{"num_deleted":"0","num_feature":"30","num_nodes":"5","size_leaf_vector":"1"}},{"base_weights":[-5.2613294E-1,-5.319956E-2,1.401859E-2],"categories":[],"categories_nodes":[],"categories_segments":[],"categories_sizes":[],"default_left":[0,0,0],"id":57,"left_children":[1,-1,-1],"loss_changes":[6.643448E-1,0E0,0E0],"parents":[2147483647,0,0],"right_children":[2,-1,-1],"split_conditions":[7E0,-5.319956E-2,1.401859E-2],"split_indices":[6,0,0],"split_type":[0,0,0],"sum_hessian":[1.4997481E2,1.488666E2,1.108227E0],"tree_param":{"num_deleted":"0","num_feature":"30","num_nodes":"3","size_leaf_vector":"1"}},{"base_weights":[-5.003738E-1,-5.3240407E-2,5.009377E-1,6.962729E-2,-2.1642959E-2],"categories":[],"categories_nodes":[],"categories_segments":[],"categories_sizes":[],"default_left":[0,0,0,0,0],"id":58,"left_children":[1,-1,3,-1,-1],"loss_changes":[6.0707397E0,0E0,1.0089207E0,0E0,0E0],"parents":[2147483647,0,0,2,2],"right_children":[2,-1,4,-1,-1],"split_conditions":[3E1,-5.3240407E-2,8.3E1,6.962729E-2,-2.1642959E-2],"split_indices":[0,0,0,0,0],"split_type":[0,0,0,0,0],"sum_hessian":[1.7996709E2,1.7484245E2,5.1246324E0,4.0509787E0,1.0736539E0],"tree_param":{"num_deleted":"0","num_feature":"30","num_nodes":"5","size_leaf_vector":"1"}},{"base_weights":[-6.7015305E-2,-5.3898342E-2,7.1662956E-1,7.381253E-2,5.4916725E-2,-2.9889017E-2,5.291613E-2],"categories":[],"categories_nodes":[],"categories_segments":[],"categories_sizes":[],"default_left":[0,0,0,0,0,0,0],"id":59,"left_children":[1,-1,3,-1,5,-1,-1],"loss_changes":[9.06701E1,0E0,1.2707062E0,0E0,8.261031E-1,0E0,0E0],"parents":[2147483647,0,0,2,2,4,4],"right_children":[2,-1,4,-1,6,-1,-1],"split_conditions":[5E0,-5.3898342E-2,2.1E1,7.381253E-2,6.8E1,-2.9889017E-2,5.291613E-2],"split_indices":[18,0,0,0,0,0,0],"split_type":[0,0,0,0,0,0,0],"sum_hessian":[2.431058E2,1.5192044E2,9.118536E1,8.820457E1,2.9807975E0,1.9189404E0,1.0618572E0],"tree_param":{"num_deleted":"0","num_feature":"30","num_nodes":"7","size_leaf_vector":"1"}},{"base_weights":[-4.8383775E-1,-5.2839953E-2,1.9244134E-1,6.579275E-2,-3.9238956E-2],"categories":[],"categories_nodes":[],"categories_segments":[],"categories_sizes":[],"default_left":[0,0,0,0,0],"id":60,"left_children":[1,-1,3,-1,-1],"loss_changes":[4.6857567E0,0E0,3.0176194E0,0E0,0E0],"parents":[2147483647,0,0,2,2],"right_children":[2,-1,4,-1,-1],"split_conditions":[2E1,-5.2839953E-2,3E1,6.579275E-2,-3.9238956E-2],"split_indices":[0,0,0,0,0],"split_type":[0,0,0,0,0],"sum_hessian":[1.5111188E2,1.4197542E2,9.136461E0,5.0177116E0,4.118749E0],"tree_param":{"num_deleted":"0","num_feature":"30","num_nodes":"5","size_leaf_vector":"1"}},{"base_weights":[4.2018282E-1,6.47811E-1,-5.5877812E-2,6.66771E-2,-5.0189823E-2],"categories":[],"categories_nodes":[],"categories_segments":[],"categories_sizes":[],"default_left":[0,0,0,0,0],"id":61,"left_children":[1,3,-1,-1,-1],"loss_changes":[1.0631503E2,8.753937E0,0E0,0E0,0E0],"parents":[2147483647,0,0,1,1],"right_children":[2,4,-1,-1,-1],"split_conditions":[5E0,2E1,-5.5877812E-2,6.66771E-2,-5.0189823E-2],"split_indices":[18,0,0,0,0],"split_type":[0,0,0,0,0],"sum_hessian":[4.7446887E2,3.8523276E2,8.923612E1,3.7939612E2,5.8366227E0],"tree_param":{"num_deleted":"0","num_feature":"30","num_nodes":"5","size_leaf_vector":"1"}},{"base_weights":[-5.2023274E-1,-5.282097E-2,2.9602105E-2],"categories":[],"categories_nodes":[],"categories_segments":[],"categories_sizes":[],"default_left":[0,0,0],"id":62,"left_children":[1,-1,-1],"loss_changes":[1.0815239E0,0E0,0E0],"parents":[2147483647,0,0],"right_children":[2,-1,-1],"split_conditions":[1.8E1,-5.282097E-2,2.9602105E-2],"split_indices":[6,0,0],"split_type":[0,0,0],"sum_hessian":[1.410874E2,1.4007143E2,1.015976E0],"tree_param":{"num_deleted":"0","num_feature":"30","num_nodes":"3","size_leaf_vector":"1"}},{"base_weights":[-4.4898865E-1,-5.2905537E-2,6.415333E-1,7.759721E-2,-3.4983795E-2],"categories":[],"categories_nodes":[],"categories_segments":[],"categories_sizes":[],"default_left":[0,0,0,0,0],"id":63,"left_children":[1,-1,3,-1,-1],"loss_changes":[1.5656334E1,0E0,1.9308672E0,0E0,0E0],"parents":[2147483647,0,0,2,2],"right_children":[2,-1,4,-1,-1],"split_conditions":[3E1,-5.2905537E-2,1.22E2,7.759721E-2,-3.4983795E-2],"split_indices":[0,0,0,0,0],"split_type":[0,0,0,0,0],"sum_hessian":[1.7442249E2,1.6297186E2,1.1450619E1,1.02745695E1,1.176049E0],"tree_param":{"num_deleted":"0","num_feature":"30","num_nodes":"5","size_leaf_vector":"1"}},{"base_weights":[1.4167498E-1,-5.37636E-2,7.0004636E-1,7.127317E-2,-1.1745719E-1,2.399905E-2,-3.6329176E-2],"categories":[],"categories_nodes":[],"categories_segments":[],"categories_sizes":[],"default_left":[0,0,0,0,0,0,0],"id":64,"left_children":[1,-1,3,-1,5,-1,-1],"loss_changes":[1.2167616E2,0E0,1.9084091E0,0E0,3.9888167E-1,0E0,0E0],"parents":[2147483647,0,0,2,2,4,4],"right_children":[2,-1,4,-1,6,-1,-1],"split_conditions":[5E0,-5.37636E-2,2.1E1,7.127317E-2,2.3809524E-2,2.399905E-2,-3.6329176E-2],"split_indices":[16,0,0,0,8,0,0],"split_type":[0,0,0,0,0,0,0],"sum_hessian":[3.187925E2,1.4383768E2,1.7495483E2,1.7240773E2,2.547109E0,1.0476216E0,1.4994874E0],"tree_param":{"num_deleted":"0","num_feature":"30","num_nodes":"7","size_leaf_vector":"1"}},{"base_weights":[-4.5723686E-1,-5.2378427E-2,1.7331569E-1,4.566478E-1,-1.9156829E-1,8.288058E-3,5.7486683E-2,3.6101032E-2,-4.258073E-2],"categories":[],"categories_nodes":[],"categories_segments":[],"categories_sizes":[],"default_left":[0,0,0,0,0,0,0,0,0],"id":65,"left_children":[1,-1,3,5,7,-1,-1,-1,-1],"loss_changes":[4.795471E0,0E0,1.2716945E0,2.5032043E-1,8.929553E-1,0E0,0E0,0E0,0E0],"parents":[2147483647,0,0,2,2,3,3,4,4],"right_children":[2,-1,4,6,8,-1,-1,-1,-1],"split_conditions":[1.6E1,-5.2378427E-2,2.6E1,2E1,1E0,8.288058E-3,5.7486683E-2,3.6101032E-2,-4.258073E-2],"split_indices":[2,0,2,2,3,0,0,0,0],"split_type":[0,0,0,0,0,0,0,0,0],"sum_hessian":[1.1111881E2,1.0066421E2,1.0454603E1,5.7433834E0,4.7112203E0,1.788824E0,3.954559E0,1.2414317E0,3.4697886E0],"tree_param":{"num_deleted":"0","num_feature":"30","num_nodes":"9","size_leaf_vector":"1"}},{"base_weights":[3.8966957E-1,6.27771E-1,-5.5260014E-2,6.46384E-1,-4.8375573E-2,6.475176E-2,1.7971411E-2],"categories":[],"categories_nodes":[],"categories_segments":[],"categories_sizes":[],"default_left":[0,0,0,0,0,0,0],"id":66,"left_children":[1,3,-1,5,-1,-1,-1],"loss_changes":[9.572114E1,7.34317E0,0E0,6.0638428E-2,0E0,0E0,0E0],"parents":[2147483647,0,0,1,1,3,3],"right_children":[2,4,-1,6,-1,-1,-1],"split_conditions":[5E0,2E1,-5.5260014E-2,1.7E1,-4.8375573E-2,6.475176E-2,1.7971411E-2],"split_indices":[16,2,0,5,0,0,0],"split_type":[0,0,0,0,0,0,0],"sum_hessian":[4.2410248E2,3.3882004E2,8.528243E1,3.3365137E2,5.168658E0,3.3245633E2,1.1950464E0],"tree_param":{"num_deleted":"0","num_feature":"30","num_nodes":"7","size_leaf_vector":"1"}},{"base_weights":[-5.185852E-1,-5.258456E-2,2.996934E-2],"categories":[],"categories_nodes":[],"categories_segments":[],"categories_sizes":[],"default_left":[0,0,0],"id":67,"left_children":[1,-1,-1],"loss_changes":[1.0813293E0,0E0,0E0],"parents":[2147483647,0,0],"right_children":[2,-1,-1],"split_conditions":[1.4E1,-5.258456E-2,2.996934E-2],"split_indices":[6,0,0],"split_type":[0,0,0],"sum_hessian":[1.5448442E2,1.5348E2,1.0044124E0],"tree_param":{"num_deleted":"0","num_feature":"30","num_nodes":"3","size_leaf_vector":"1"}},{"base_weights":[-4.524886E-1,-5.258159E-2,5.6243986E-1,7.022783E-2,-3.4881923E-2],"categories":[],"categories_nodes":[],"categories_segments":[],"categories_sizes":[],"default_left":[0,0,0,0,0],"id":68,"left_children":[1,-1,3,-1,-1],"loss_changes":[1.2246536E1,0E0,1.6853302E0,0E0,0E0],"parents":[2147483647,0,0,2,2],"right_children":[2,-1,4,-1,-1],"split_conditions":[3E1,-5.258159E-2,8.3E1,7.022783E-2,-3.4881923E-2],"split_indices":[0,0,0,0,0],"split_type":[0,0,0,0,0],"sum_hessian":[1.5958151E2,1.4927826E2,1.0303249E1,9.131323E0,1.1719273E0],"tree_param":{"num_deleted":"0","num_feature":"30","num_nodes":"5","size_leaf_vector":"1"}},{"base_weights":[2.0621094E-1,-5.2752435E-1,6.7093796E-1,-5.3212713E-2,-3.4052015E-3,6.866254E-2,-1.9994098E-1,-3.6206905E-2,1.0506081E-2],"categories":[],"categories_nodes":[],"categories_segments":[],"categories_sizes":[],"default_left":[0,0,0,0,0,0,0,0,0],"id":69,"left_children":[1,3,5,-1,-1,-1,7,-1,-1],"loss_changes":[9.0783905E1,2.1673012E-1,2.3614807E0,0E0,0E0,0E0,2.1878763E-1,0E0,0E0],"parents":[2147483647,0,0,1,1,2,2,6,6],"right_children":[2,4,6,-1,-1,-1,8,-1,-1],"split_conditions":[5E0,5.6E1,2.3E1,-5.3212713E-2,-3.4052015E-3,6.866254E-2,2.6E1,-3.6206905E-2,1.0506081E-2],"split_indices":[16,0,0,0,0,0,5,0,0],"split_type":[0,0,0,0,0,0,0,0,0],"sum_hessian":[2.6420093E2,1.0239663E2,1.6180428E2,1.0137276E2,1.0238746E0,1.5914906E2,2.6552227E0,1.6115013E0,1.0437212E0],"tree_param":{"num_deleted":"0","num_feature":"30","num_nodes":"9","size_leaf_vector":"1"}},{"base_weights":[-4.7772333E-1,-5.225013E-2,1.893462E-1,6.01149E-2,-3.7221365E-2],"categories":[],"categories_nodes":[],"categories_segments":[],"categories_sizes":[],"default_left":[0,0,0,0,0],"id":70,"left_children":[1,-1,3,-1,-1],"loss_changes":[4.26297E0,0E0,2.4213736E0,0E0,0E0],"parents":[2147483647,0,0,2,2],"right_children":[2,-1,4,-1,-1],"split_conditions":[2E1,-5.225013E-2,3E1,6.01149E-2,-3.7221365E-2],"split_indices":[0,0,0,0,0],"split_type":[0,0,0,0,0],"sum_hessian":[1.3840523E2,1.299021E2,8.503133E0,4.8650203E0,3.638113E0],"tree_param":{"num_deleted":"0","num_feature":"30","num_nodes":"5","size_leaf_vector":"1"}},{"base_weights":[3.5349452E-1,6.059811E-1,-5.4582536E-2,6.308567E-2,-4.891555E-2],"categories":[],"categories_nodes":[],"categories_segments":[],"categories_sizes":[],"default_left":[0,0,0,0,0],"id":71,"left_children":[1,3,-1,-1,-1],"loss_changes":[7.804805E1,7.6016617E0,0E0,0E0,0E0],"parents":[2147483647,0,0,1,1],"right_children":[2,4,-1,-1,-1],"split_conditions":[5E0,2E1,-5.4582536E-2,6.308567E-2,-4.891555E-2],"split_indices":[16,0,0,0,0],"split_type":[0,0,0,0,0],"sum_hessian":[3.412671E2,2.667129E2,7.4554214E1,2.612037E2,5.509184E0],"tree_param":{"num_deleted":"0","num_feature":"30","num_nodes":"5","size_leaf_vector":"1"}},{"base_weights":[-5.143861E-1,-5.226576E-2,2.7428994E-2],"categories":[],"categories_nodes":[],"categories_segments":[],"categories_sizes":[],"default_left":[0,0,0],"id":72,"left_children":[1,-1,-1],"loss_changes":[1.0203896E0,0E0,0E0],"parents":[2147483647,0,0],"right_children":[2,-1,-1],"split_conditions":[1.4E1,-5.226576E-2,2.7428994E-2],"split_indices":[6,0,0],"split_type":[0,0,0],"sum_hessian":[1.3344118E2,1.3238998E2,1.0511875E0],"tree_param":{"num_deleted":"0","num_feature":"30","num_nodes":"3","size_leaf_vector":"1"}},{"base_weights":[-4.4662905E-1,-5.2273836E-2,5.647554E-1,6.5186925E-2,-9.826116E-3],"categories":[],"categories_nodes":[],"categories_segments":[],"categories_sizes":[],"default_left":[0,0,0,0,0],"id":73,"left_children":[1,-1,3,-1,-1],"loss_changes":[1.1300657E1,0E0,6.6974735E-1,0E0,0E0],"parents":[2147483647,0,0,2,2],"right_children":[2,-1,4,-1,-1],"split_conditions":[3E1,-5.2273836E-2,8.1E1,6.5186925E-2,-9.826116E-3],"split_indices":[0,0,0,0,0],"split_type":[0,0,0,0,0],"sum_hessian":[1.4197278E2,1.3248601E2,9.486769E0,8.399916E0,1.0868527E0],"tree_param":{"num_deleted":"0","num_feature":"30","num_nodes":"5","size_leaf_vector":"1"}},{"base_weights":[1.5324704E-1,-5.294885E-2,6.5243894E-1,6.655911E-2,3.128135E-3,-3.19213E-2,4.8699927E-2],"categories":[],"categories_nodes":[],"categories_segments":[],"categories_sizes":[],"default_left":[0,0,0,0,0,0,0],"id":74,"left_children":[1,-1,3,-1,5,-1,-1],"loss_changes":[9.676776E1,0E0,1.3973694E0,0E0,8.196097E-1,0E0,0E0],"parents":[2147483647,0,0,2,2,4,4],"right_children":[2,-1,4,-1,6,-1,-1],"split_conditions":[5E0,-5.294885E-2,2E1,6.655911E-2,6.8E1,-3.19213E-2,4.8699927E-2],"split_indices":[16,0,0,0,0,0,0],"split_type":[0,0,0,0,0,0,0],"sum_hessian":[2.8191595E2,1.1904273E2,1.6287323E2,1.5961507E2,3.2581682E0,2.1597188E0,1.0984495E0],"tree_param":{"num_deleted":"0","num_feature":"30","num_nodes":"7","size_leaf_vector":"1"}},{"base_weights":[-4.739353E-1,-5.199439E-2,2.0642447E-1,5.7906413E-1,-3.5763856E-2,6.34596E-2,1.6858567E-2],"categories":[],"categories_nodes":[],"categories_segments":[],"categories_sizes":[],"default_left":[0,0,0,0,0,0,0],"id":75,"left_children":[1,-1,3,5,-1,-1,-1],"loss_changes":[4.365862E0,0E0,2.168815E0,2.982831E-2,0E0,0E0,0E0],"parents":[2147483647,0,0,2,2,3,3],"right_children":[2,-1,4,6,-1,-1,-1],"split_conditions":[2E1,-5.199439E-2,3E1,1.754386E-2,-3.5763856E-2,6.34596E-2,1.6858567E-2],"split_indices":[0,0,0,23,0,0,0],"split_type":[0,0,0,0,0,0,0],"sum_hessian":[1.3504485E2,1.2671187E2,8.332976E0,5.0019317E0,3.331045E0,3.924951E0,1.0769807E0],"tree_param":{"num_deleted":"0","num_feature":"30","num_nodes":"7","size_leaf_vector":"1"}},{"base_weights":[3.5752037E-1,5.952127E-1,-5.405131E-2,6.163439E-2,-4.7209997E-2],"categories":[],"categories_nodes":[],"categories_segments":[],"categories_sizes":[],"default_left":[0,0,0,0,0],"id":76,"left_children":[1,3,-1,-1,-1],"loss_changes":[7.128864E1,6.230736E0,0E0,0E0,0E0],"parents":[2147483647,0,0,1,1],"right_children":[2,4,-1,-1,-1],"split_conditions":[5E0,2E1,-5.405131E-2,6.163439E-2,-4.7209997E-2],"split_indices":[16,0,0,0,0],"split_type":[0,0,0,0,0],"sum_hessian":[3.3146683E2,2.6236185E2,6.9104965E1,2.5768265E2,4.6792088E0],"tree_param":{"num_deleted":"0","num_feature":"30","num_nodes":"5","size_leaf_vector":"1"}},{"base_weights":[-5.1135975E-1,-5.2003153E-2,2.7641052E-2],"categories":[],"categories_nodes":[],"categories_segments":[],"categories_sizes":[],"default_left":[0,0,0],"id":77,"left_children":[1,-1,-1],"loss_changes":[1.0030708E0,0E0,0E0],"parents":[2147483647,0,0],"right_children":[2,-1,-1],"split_conditions":[3.7E1,-5.2003153E-2,2.7641052E-2],"split_indices":[7,0,0],"split_type":[0,0,0],"sum_hessian":[1.2479101E2,1.2376843E2,1.0225738E0],"tree_param":{"num_deleted":"0","num_feature":"30","num_nodes":"3","size_leaf_vector":"1"}},{"base_weights":[-4.702476E-1,-5.2003272E-2,4.7813234E-1,6.3832074E-2,-2.1313135E-2],"categories":[],"categories_nodes":[],"categories_segments":[],"categories_sizes":[],"default_left":[0,0,0,0,0],"id":78,"left_children":[1,-1,3,-1,-1],"loss_changes":[6.4032574E0,0E0,9.136673E-1,0E0,0E0],"parents":[2147483647,0,0,2,2],"right_children":[2,-1,4,-1,-1],"split_conditions":[2.9E1,-5.2003272E-2,7.2E1,6.3832074E-2,-2.1313135E-2],"split_indices":[2,0,1,0,0],"split_type":[0,0,0,0,0],"sum_hessian":[1.2935233E2,1.23329796E2,6.022525E0,4.951653E0,1.0708715E0],"tree_param":{"num_deleted":"0","num_feature":"30","num_nodes":"5","size_leaf_vector":"1"}},{"base_weights":[1.3595624E-1,-5.2364815E-2,6.339547E-1,6.4584E-2,5.132385E-2,-2.9085547E-2,5.191044E-2],"categories":[],"categories_nodes":[],"categories_segments":[],"categories_sizes":[],"default_left":[0,0,0,0,0,0,0],"id":79,"left_children":[1,-1,3,-1,5,-1,-1],"loss_changes":[8.195555E1,0E0,9.504509E-1,0E0,7.793898E-1,0E0,0E0],"parents":[2147483647,0,0,2,2,4,4],"right_children":[2,-1,4,-1,6,-1,-1],"split_conditions":[5E0,-5.2364815E-2,2.1E1,6.4584E-2,7.3E1,-2.9085547E-2,5.191044E-2],"split_indices":[16,0,0,0,0,0,0],"split_type":[0,0,0,0,0,0,0],"sum_hessian":[2.4748724E2,1.06446365E2,1.4104088E2,1.3811493E2,2.9259434E0,1.9082731E0,1.0176703E0],"tree_param":{"num_deleted":"0","num_feature":"30","num_nodes":"7","size_leaf_vector":"1"}},{"base_weights":[-4.6462414E-1,-5.1707316E-2,2.1013296E-1,5.9494406E-2,-3.571396E-2],"categories":[],"categories_nodes":[],"categories_segments":[],"categories_sizes":[],"default_left":[0,0,0,0,0],"id":80,"left_children":[1,-1,3,-1,-1],"loss_changes":[4.276865E0,0E0,2.222012E0,0E0,0E0],"parents":[2147483647,0,0,2,2],"right_children":[2,-1,4,-1,-1],"split_conditions":[2E1,-5.1707316E-2,3E1,5.9494406E-2,-3.571396E-2],"split_indices":[0,0,0,0,0],"split_type":[0,0,0,0,0],"sum_hessian":[1.16778275E2,1.0857259E2,8.205682E0,4.860063E0,3.3456192E0],"tree_param":{"num_deleted":"0","num_feature":"30","num_nodes":"5","size_leaf_vector":"1"}},{"base_weights":[3.739076E-1,5.889271E-1,-5.350404E-2,6.036824E-2,-4.434736E-2],"categories":[],"categories_nodes":[],"categories_segments":[],"categories_sizes":[],"default_left":[0,0,0,0,0],"id":81,"left_children":[1,3,-1,-1,-1],"loss_changes":[6.5525925E1,4.385376E0,0E0,0E0,0E0],"parents":[2147483647,0,0,1,1],"right_children":[2,4,-1,-1,-1],"split_conditions":[5E0,2E1,-5.350404E-2,6.036824E-2,-4.434736E-2],"split_indices":[18,0,0,0,0],"split_type":[0,0,0,0,0],"sum_hessian":[3.3265897E2,2.693047E2,6.335427E1,2.6591937E2,3.3853226E0],"tree_param":{"num_deleted":"0","num_feature":"30","num_nodes":"5","size_leaf_vector":"1"}},{"base_weights":[-5.179444E-1],"categories":[],"categories_nodes":[],"categories_segments":[],"categories_sizes":[],"default_left":[0],"id":82,"left_children":[-1],"loss_changes":[0E0],"parents":[2147483647],"right_children":[-1],"split_conditions":[-5.179444E-2],"split_indices":[0],"split_type":[0],"sum_hessian":[1.16077255E2],"tree_param":{"num_deleted":"0","num_feature":"30","num_nodes":"1","size_leaf_vector":"1"}},{"base_weights":[-4.2108676E-1,-5.18167E-2,5.1818264E-1,5.793571E-2,4.0806844E-3],"categories":[],"categories_nodes":[],"categories_segments":[],"categories_sizes":[],"default_left":[0,0,0,0,0],"id":83,"left_children":[1,-1,3,-1,-1],"loss_changes":[1.0340559E1,0E0,2.9312992E-1,0E0,0E0],"parents":[2147483647,0,0,2,2],"right_children":[2,-1,4,-1,-1],"split_conditions":[2E1,-5.18167E-2,7E1,5.793571E-2,4.0806844E-3],"split_indices":[1,0,2,0,0],"split_type":[0,0,0,0,0],"sum_hessian":[1.0945797E2,9.961081E1,9.84716E0,8.539249E0,1.3079106E0],"tree_param":{"num_deleted":"0","num_feature":"30","num_nodes":"5","size_leaf_vector":"1"}},{"base_weights":[1.2758972E-1,-5.177174E-1,6.2054676E-1,-5.2259456E-2,-1.9092938E-3,6.2946334E-2,8.1800245E-2,-3.2301605E-2,4.9445033E-2],"categories":[],"categories_nodes":[],"categories_segments":[],"categories_sizes":[],"default_left":[0,0,0,0,0,0,0,0,0],"id":84,"left_children":[1,3,5,-1,-1,-1,7,-1,-1],"loss_changes":[7.45182E1,2.3699379E-1,5.8589935E-1,0E0,0E0,0E0,7.1258223E-1,0E0,0E0],"parents":[2147483647,0,0,1,1,2,2,6,6],"right_children":[2,4,6,-1,-1,-1,8,-1,-1],"split_conditions":[5E0,3.1E1,2.3E1,-5.2259456E-2,-1.9092938E-3,6.2946334E-2,7.3E1,-3.2301605E-2,4.9445033E-2],"split_indices":[16,1,0,0,0,0,0,0,0],"split_type":[0,0,0,0,0,0,0,0,0],"sum_hessian":[2.3224399E2,1.00557976E2,1.31686E2,9.953632E1,1.0216546E0,1.2937637E2,2.3096385E0,1.2755345E0,1.034104E0],"tree_param":{"num_deleted":"0","num_feature":"30","num_nodes":"9","size_leaf_vector":"1"}},{"base_weights":[-4.6888518E-1,-5.1469114E-2,1.295671E-1,5.025465E-2,-3.5331372E-2],"categories":[],"categories_nodes":[],"categories_segments":[],"categories_sizes":[],"default_left":[0,0,0,0,0],"id":85,"left_children":[1,-1,3,-1,-1],"loss_changes":[3.0431004E0,0E0,1.7118028E0,0E0,0E0],"parents":[2147483647,0,0,2,2],"right_children":[2,-1,4,-1,-1],"split_conditions":[2E1,-5.1469114E-2,3E1,5.025465E-2,-3.5331372E-2],"split_indices":[0,0,0,0,0],"split_type":[0,0,0,0,0],"sum_hessian":[1.0757795E2,1.000593E2,7.518641E0,4.219079E0,3.299562E0],"tree_param":{"num_deleted":"0","num_feature":"30","num_nodes":"5","size_leaf_vector":"1"}},{"base_weights":[3.2707566E-1,5.684275E-1,-5.3072482E-2,5.918699E-2,-4.5618076E-2],"categories":[],"categories_nodes":[],"categories_segments":[],"categories_sizes":[],"default_left":[0,0,0,0,0],"id":86,"left_children":[1,3,-1,-1,-1],"loss_changes":[5.655693E1,5.375084E0,0E0,0E0,0E0],"parents":[2147483647,0,0,1,1],"right_children":[2,4,-1,-1,-1],"split_conditions":[5E0,2E1,-5.3072482E-2,5.918699E-2,-4.5618076E-2],"split_indices":[16,0,0,0,0],"split_type":[0,0,0,0,0],"sum_hessian":[2.7072284E2,2.115408E2,5.918205E1,2.0722203E2,4.3187714E0],"tree_param":{"num_deleted":"0","num_feature":"30","num_nodes":"5","size_leaf_vector":"1"}},{"base_weights":[-5.0467885E-1,-5.1508646E-2,2.5963355E-2],"categories":[],"categories_nodes":[],"categories_segments":[],"categories_sizes":[],"default_left":[0,0,0],"id":87,"left_children":[1,-1,-1],"loss_changes":[9.771633E-1,0E0,0E0],"parents":[2147483647,0,0],"right_children":[2,-1,-1],"split_conditions":[9E0,-5.1508646E-2,2.5963355E-2],"split_indices":[7,0,0],"split_type":[0,0,0],"sum_hessian":[1.05029594E2,1.0394032E2,1.0892751E0],"tree_param":{"num_deleted":"0","num_feature":"30","num_nodes":"3","size_leaf_vector":"1"}},{"base_weights":[-4.2442E-1,-5.1436167E-2,4.655473E-1,5.8470096E-2,-2.380213E-2],"categories":[],"categories_nodes":[],"categories_segments":[],"categories_sizes":[],"default_left":[0,0,0,0,0],"id":88,"left_children":[1,-1,3,-1,-1],"loss_changes":[8.121553E0,0E0,9.4087267E-1,0E0,0E0],"parents":[2147483647,0,0,2,2],"right_children":[2,-1,4,-1,-1],"split_conditions":[3E1,-5.1436167E-2,6.5E1,5.8470096E-2,-2.380213E-2],"split_indices":[0,0,1,0,0],"split_type":[0,0,0,0,0],"sum_hessian":[9.747059E1,8.890748E1,8.563106E0,7.467405E0,1.0957007E0],"tree_param":{"num_deleted":"0","num_feature":"30","num_nodes":"5","size_leaf_vector":"1"}},{"base_weights":[1.21844135E-1,-5.146449E-1,5.9780896E-1,-5.196911E-2,-2.7242703E-3,6.139898E-2,-3.698593E-2],"categories":[],"categories_nodes":[],"categories_segments":[],"categories_sizes":[],"default_left":[0,0,0,0,0,0,0],"id":89,"left_children":[1,3,5,-1,-1,-1,-1],"loss_changes":[6.681342E1,2.1817398E-1,2.2009964E0,0E0,0E0,0E0,0E0],"parents":[2147483647,0,0,1,1,2,2],"right_children":[2,4,6,-1,-1,-1,-1],"split_conditions":[5E0,2.3E1,2.3E1,-5.196911E-2,-2.7242703E-3,6.139898E-2,-3.698593E-2],"split_indices":[16,5,0,0,0,0,0],"split_type":[0,0,0,0,0,0,0],"sum_hessian":[2.185298E2,9.3463486E1,1.25066315E2,9.2440186E1,1.0232981E0,1.23368904E2,1.6974148E0],"tree_param":{"num_deleted":"0","num_feature":"30","num_nodes":"7","size_leaf_vector":"1"}},{"base_weights":[-4.6528792E-1,-5.125862E-2,1.5035866E-1,4.8684046E-2,-3.3474095E-2],"categories":[],"categories_nodes":[],"categories_segments":[],"categories_sizes":[],"default_left":[0,0,0,0,0],"id":90,"left_children":[1,-1,3,-1,-1],"loss_changes":[3.0765266E0,0E0,1.488743E0,0E0,0E0],"parents":[2147483647,0,0,2,2],"right_children":[2,-1,4,-1,-1],"split_conditions":[2E1,-5.125862E-2,3E1,4.8684046E-2,-3.3474095E-2],"split_indices":[0,0,0,0,0],"split_type":[0,0,0,0,0],"sum_hessian":[1.0200673E2,9.4884445E1,7.122284E0,4.2032065E0,2.9190774E0],"tree_param":{"num_deleted":"0","num_feature":"30","num_nodes":"5","size_leaf_vector":"1"}},{"base_weights":[3.7587962E-1,5.6485045E-1,-5.2592624E-2,5.8244884E-2,-4.469105E-2],"categories":[],"categories_nodes":[],"categories_segments":[],"categories_sizes":[],"default_left":[0,0,0,0,0],"id":91,"left_children":[1,3,-1,-1,-1],"loss_changes":[5.283239E1,4.806961E0,0E0,0E0,0E0],"parents":[2147483647,0,0,1,1],"right_children":[2,4,-1,-1,-1],"split_conditions":[5E0,2E1,-5.2592624E-2,5.8244884E-2,-4.469105E-2],"split_indices":[16,0,0,0,0],"split_type":[0,0,0,0,0],"sum_hessian":[3.0727875E2,2.5435338E2,5.2925373E1,2.504219E2,3.9314709E0],"tree_param":{"num_deleted":"0","num_feature":"30","num_nodes":"5","size_leaf_vector":"1"}},{"base_weights":[-5.0195783E-1,-5.13114E-2,2.7804026E-2],"categories":[],"categories_nodes":[],"categories_segments":[],"categories_sizes":[],"default_left":[0,0,0],"id":92,"left_children":[1,-1,-1],"loss_changes":[9.9204254E-1,0E0,0E0],"parents":[2147483647,0,0],"right_children":[2,-1,-1],"split_conditions":[7E0,-5.13114E-2,2.7804026E-2],"split_indices":[6,0,0],"split_type":[0,0,0],"sum_hessian":[9.660965E1,9.558469E1,1.0249658E0],"tree_param":{"num_deleted":"0","num_feature":"30","num_nodes":"3","size_leaf_vector":"1"}},{"base_weights":[-4.1863906E-1,-5.1401954E-2,4.4759232E-1,5.4629214E-2,-2.3005866E-2],"categories":[],"categories_nodes":[],"categories_segments":[],"categories_sizes":[],"default_left":[0,0,0,0,0],"id":93,"left_children":[1,-1,3,-1,-1],"loss_changes":[8.740894E0,0E0,8.448081E-1,0E0,0E0],"parents":[2147483647,0,0,2,2],"right_children":[2,-1,4,-1,-1],"split_conditions":[2E1,-5.1401954E-2,6.5E1,5.4629214E-2,-2.3005866E-2],"split_indices":[1,0,1,0,0],"split_type":[0,0,0,0,0],"sum_hessian":[1.020097E2,9.225782E1,9.751882E0,8.681296E0,1.0705856E0],"tree_param":{"num_deleted":"0","num_feature":"30","num_nodes":"5","size_leaf_vector":"1"}},{"base_weights":[1.4314131E-1,-5.11053E-1,5.8770645E-1,-5.1660497E-2,-2.052595E-3,6.017078E-2,-9.576021E-2,1.4493085E-2,-3.2039363E-2],"categories":[],"categories_nodes":[],"categories_segments":[],"categories_sizes":[],"default_left":[0,0,0,0,0,0,0,0,0],"id":94,"left_children":[1,3,5,-1,-1,-1,7,-1,-1],"loss_changes":[6.1695847E1,2.2346687E-1,1.2648544E0,0E0,0E0,0E0,2.3000404E-1,0E0,0E0],"parents":[2147483647,0,0,1,1,2,2,6,6],"right_children":[2,4,6,-1,-1,-1,8,-1,-1],"split_conditions":[5E0,4E1,2E1,-5.1660497E-2,-2.052595E-3,6.017078E-2,8.4615386E-1,1.4493085E-2,-3.2039363E-2],"split_indices":[16,0,0,0,0,0,9,0,0],"split_type":[0,0,0,0,0,0,0,0,0],"sum_hessian":[2.1010297E2,8.4948494E1,1.25154465E2,8.394522E1,1.0032754E0,1.2275926E2,2.3951995E0,1.3275563E0,1.0676434E0],"tree_param":{"num_deleted":"0","num_feature":"30","num_nodes":"9","size_leaf_vector":"1"}},{"base_weights":[-4.599959E-1,-5.096609E-2,1.17081225E-1,4.9778964E-2,-3.9249387E-2],"categories":[],"categories_nodes":[],"categories_segments":[],"categories_sizes":[],"default_left":[0,0,0,0,0],"id":95,"left_children":[1,-1,3,-1,-1],"loss_changes":[2.434002E0,0E0,1.6266974E0,0E0,0E0],"parents":[2147483647,0,0,2,2],"right_children":[2,-1,4,-1,-1],"split_conditions":[2E1,-5.096609E-2,3E1,4.9778964E-2,-3.9249387E-2],"split_indices":[0,0,0,0,0],"split_type":[0,0,0,0,0],"sum_hessian":[8.184322E1,7.546528E1,6.377946E0,3.663808E0,2.714138E0],"tree_param":{"num_deleted":"0","num_feature":"30","num_nodes":"5","size_leaf_vector":"1"}},{"base_weights":[3.7477186E-1,5.623709E-1,-5.2167833E-2,5.734339E-2,-3.853633E-2],"categories":[],"categories_nodes":[],"categories_segments":[],"categories_sizes":[],"default_left":[0,0,0,0,0],"id":96,"left_children":[1,3,-1,-1,-1],"loss_changes":[4.7044292E1,2.636322E0,0E0,0E0,0E0],"parents":[2147483647,0,0,1,1],"right_children":[2,4,-1,-1,-1],"split_conditions":[5E0,2E1,-5.2167833E-2,5.734339E-2,-3.853633E-2],"split_indices":[16,0,0,0,0],"split_type":[0,0,0,0,0],"sum_hessian":[2.7699274E2,2.2936623E2,4.7626514E1,2.2711009E2,2.2561312E0],"tree_param":{"num_deleted":"0","num_feature":"30","num_nodes":"5","size_leaf_vector":"1"}},{"base_weights":[-5.085339E-1],"categories":[],"categories_nodes":[],"categories_segments":[],"categories_sizes":[],"default_left":[0],"id":97,"left_children":[-1],"loss_changes":[0E0],"parents":[2147483647],"right_children":[-1],"split_conditions":[-5.085339E-2],"split_indices":[0],"split_type":[0],"sum_hessian":[8.865344E1],"tree_param":{"num_deleted":"0","num_feature":"30","num_nodes":"1","size_leaf_vector":"1"}},{"base_weights":[-4.2368883E-1,-5.116277E-2,4.048033E-1,5.1845707E-2,-2.1439938E-2],"categories":[],"categories_nodes":[],"categories_segments":[],"categories_sizes":[],"default_left":[0,0,0,0,0],"id":98,"left_children":[1,-1,3,-1,-1],"loss_changes":[6.4656076E0,0E0,7.305404E-1,0E0,0E0],"parents":[2147483647,0,0,2,2],"right_children":[2,-1,4,-1,-1],"split_conditions":[2E1,-5.116277E-2,7.2E1,5.1845707E-2,-2.1439938E-2],"split_indices":[1,0,1,0,0],"split_type":[0,0,0,0,0],"sum_hessian":[8.490152E1,7.7100296E1,7.80122E0,6.728851E0,1.0723689E0],"tree_param":{"num_deleted":"0","num_feature":"30","num_nodes":"5","size_leaf_vector":"1"}},{"base_weights":[1.9023442E-1,-5.1324755E-2,5.776016E-1,5.898852E-2,5.8931593E-2,-2.6265869E-2,4.6059024E-2],"categories":[],"categories_nodes":[],"categories_segments":[],"categories_sizes":[],"default_left":[0,0,0,0,0,0,0],"id":99,"left_children":[1,-1,3,-1,5,-1,-1],"loss_changes":[4.9169445E1,0E0,7.0511246E-1,0E0,6.1151874E-1,0E0,0E0],"parents":[2147483647,0,0,2,2,4,4],"right_children":[2,-1,4,-1,6,-1,-1],"split_conditions":[5E0,-5.1324755E-2,2.1E1,5.898852E-2,5.9E1,-2.6265869E-2,4.6059024E-2],"split_indices":[16,0,0,0,0,0,0],"split_type":[0,0,0,0,0,0,0],"sum_hessian":[1.7834659E2,6.3216564E1,1.1513003E2,1.12332375E2,2.7976508E0,1.7458729E0,1.0517781E0],"tree_param":{"num_deleted":"0","num_feature":"30","num_nodes":"7","size_leaf_vector":"1"}},{"base_weights":[-4.4964814E-1,-5.0833415E-2,3.012076E-1,4.7517333E-2,-2.909473E-2],"categories":[],"categories_nodes":[],"categories_segments":[],"categories_sizes":[],"default_left":[0,0,0,0,0],"id":100,"left_children":[1,-1,3,-1,-1],"loss_changes":[3.8975868E0,0E0,8.3752704E-1,0E0,0E0],"parents":[2147483647,0,0,2,2],"right_children":[2,-1,4,-1,-1],"split_conditions":[2E1,-5.0833415E-2,2.9E1,4.7517333E-2,-2.909473E-2],"split_indices":[0,0,1,0,0],"split_type":[0,0,0,0,0],"sum_hessian":[8.397662E1,7.818849E1,5.7881284E0,4.626491E0,1.1616374E0],"tree_param":{"num_deleted":"0","num_feature":"30","num_nodes":"5","size_leaf_vector":"1"}},{"base_weights":[3.682674E-1,5.477892E-1,-5.175218E-2,5.654871E-2,-4.288645E-2],"categories":[],"categories_nodes":[],"categories_segments":[],"categories_sizes":[],"default_left":[0,0,0,0,0],"id":101,"left_children":[1,3,-1,-1,-1],"loss_changes":[4.144282E1,3.9708633E0,0E0,0E0,0E0],"parents":[2147483647,0,0,1,1],"right_children":[2,4,-1,-1,-1],"split_conditions":[5E0,2E1,-5.175218E-2,5.654871E-2,-4.288645E-2],"split_indices":[16,0,0,0,0],"split_type":[0,0,0,0,0],"sum_hessian":[2.5783362E2,2.1470184E2,4.3131783E1,2.1129399E2,3.4078436E0],"tree_param":{"num_deleted":"0","num_feature":"30","num_nodes":"5","size_leaf_vector":"1"}},{"base_weights":[-4.955593E-1,-5.08911E-2,2.7203143E-2],"categories":[],"categories_nodes":[],"categories_segments":[],"categories_sizes":[],"default_left":[0,0,0],"id":102,"left_children":[1,-1,-1],"loss_changes":[9.6549416E-1,0E0,0E0],"parents":[2147483647,0,0],"right_children":[2,-1,-1],"split_conditions":[1.7E1,-5.08911E-2,2.7203143E-2],"split_indices":[6,0,0],"split_type":[0,0,0],"sum_hessian":[7.969886E1,7.8667496E1,1.031364E0],"tree_param":{"num_deleted":"0","num_feature":"30","num_nodes":"3","size_leaf_vector":"1"}},{"base_weights":[-4.2087767E-1,-5.0874185E-2,3.9759514E-1,5.6121677E-2,-3.617727E-2],"categories":[],"categories_nodes":[],"categories_segments":[],"categories_sizes":[],"default_left":[0,0,0,0,0],"id":103,"left_children":[1,-1,3,-1,-1],"loss_changes":[6.7041893E0,0E0,1.3618072E0,0E0,0E0],"parents":[2147483647,0,0,2,2],"right_children":[2,-1,4,-1,-1],"split_conditions":[3E1,-5.0874185E-2,1.22E2,5.6121677E-2,-3.617727E-2],"split_indices":[0,0,0,0,0],"split_type":[0,0,0,0,0],"sum_hessian":[8.941183E1,8.10856E1,8.326224E0,7.0648885E0,1.2613355E0],"tree_param":{"num_deleted":"0","num_feature":"30","num_nodes":"5","size_leaf_vector":"1"}},{"base_weights":[1.7895477E-1,-5.013309E-1,5.69701E-1,-5.0963234E-2,-3.5900169E-3,5.8040913E-2,7.572615E-2,-3.0654237E-2,4.5860734E-2],"categories":[],"categories_nodes":[],"categories_segments":[],"categories_sizes":[],"default_left":[0,0,0,0,0,0,0,0,0],"id":104,"left_children":[1,3,5,-1,-1,-1,7,-1,-1],"loss_changes":[4.251223E1,2.0768356E-1,4.9223328E-1,0E0,0E0,0E0,6.236999E-1,0E0,0E0],"parents":[2147483647,0,0,1,1,2,2,6,6],"right_children":[2,4,6,-1,-1,-1,8,-1,-1],"split_conditions":[5E0,1.8E1,2.3E1,-5.0963234E-2,-3.5900169E-3,5.8040913E-2,3.9E1,-3.0654237E-2,4.5860734E-2],"split_indices":[16,5,0,0,0,0,1,0,0],"split_type":[0,0,0,0,0,0,0,0,0],"sum_hessian":[1.5785472E2,5.748714E1,1.00367584E2,5.638646E1,1.1006831E0,9.806678E1,2.3008063E0,1.251094E0,1.0497123E0],"tree_param":{"num_deleted":"0","num_feature":"30","num_nodes":"9","size_leaf_vector":"1"}},{"base_weights":[-4.4550878E-1,-5.063935E-2,1.8443681E-1,5.379178E-2,-3.240969E-2],"categories":[],"categories_nodes":[],"categories_segments":[],"categories_sizes":[],"default_left":[0,0,0,0,0],"id":105,"left_children":[1,-1,3,-1,-1],"loss_changes":[3.1387215E0,0E0,1.5639994E0,0E0,0E0],"parents":[2147483647,0,0,2,2],"right_children":[2,-1,4,-1,-1],"split_conditions":[2E1,-5.063935E-2,3E1,5.379178E-2,-3.240969E-2],"split_indices":[0,0,0,0,0],"split_type":[0,0,0,0,0],"sum_hessian":[7.840033E1,7.166955E1,6.7307825E0,3.9366448E0,2.7941375E0],"tree_param":{"num_deleted":"0","num_feature":"30","num_nodes":"5","size_leaf_vector":"1"}},{"base_weights":[3.5174078E-1,5.362011E-1,-5.1338058E-2,5.555344E-1,-4.0792078E-2,5.581019E-2,6.4080716E-3],"categories":[],"categories_nodes":[],"categories_segments":[],"categories_sizes":[],"default_left":[0,0,0,0,0,0,0],"id":106,"left_children":[1,3,-1,5,-1,-1,-1],"loss_changes":[3.6303093E1,3.632206E0,0E0,1.954689E-1,0E0,0E0,0E0],"parents":[2147483647,0,0,1,1,3,3],"right_children":[2,4,-1,6,-1,-1,-1],"split_conditions":[5E0,1.7E1,-5.1338058E-2,1.6E1,-4.0792078E-2,5.581019E-2,6.4080716E-3],"split_indices":[16,1,0,5,0,0,0],"split_type":[0,0,0,0,0,0,0],"sum_hessian":[2.247657E2,1.855773E2,3.918841E1,1.8225671E2,3.3205817E0,1.8117459E2,1.0821146E0],"tree_param":{"num_deleted":"0","num_feature":"30","num_nodes":"7","size_leaf_vector":"1"}},{"base_weights":[-4.931212E-1,-5.0697666E-2,2.6610041E-2],"categories":[],"categories_nodes":[],"categories_segments":[],"categories_sizes":[],"default_left":[0,0,0],"id":107,"left_children":[1,-1,-1],"loss_changes":[9.401188E-1,0E0,0E0],"parents":[2147483647,0,0],"right_children":[2,-1,-1],"split_conditions":[2.9E1,-5.0697666E-2,2.6610041E-2],"split_indices":[7,0,0],"split_type":[0,0,0],"sum_hessian":[7.554587E1,7.451819E1,1.0276808E0],"tree_param":{"num_deleted":"0","num_feature":"30","num_nodes":"3","size_leaf_vector":"1"}},{"base_weights":[-3.937604E-1,-5.0528068E-2,4.6601665E-1,5.0859917E-2,8.073061E-3],"categories":[],"categories_nodes":[],"categories_segments":[],"categories_sizes":[],"default_left":[0,0,0,0,0],"id":108,"left_children":[1,-1,3,-1,-1],"loss_changes":[6.756899E0,0E0,9.5595956E-2,0E0,0E0],"parents":[2147483647,0,0,2,2],"right_children":[2,-1,4,-1,-1],"split_conditions":[3E1,-5.0528068E-2,6.6E1,5.0859917E-2,8.073061E-3],"split_indices":[0,0,0,0,0],"split_type":[0,0,0,0,0],"sum_hessian":[6.701475E1,5.9685368E1,7.329379E0,6.311739E0,1.0176401E0],"tree_param":{"num_deleted":"0","num_feature":"30","num_nodes":"5","size_leaf_vector":"1"}},{"base_weights":[1.3535306E-1,-5.021308E-1,5.544414E-1,-5.0915428E-2,-2.069055E-3,5.7045218E-2,-1.4522165E-1,-2.866906E-2,7.16193E-3],"categories":[],"categories_nodes":[],"categories_segments":[],"categories_sizes":[],"default_left":[0,0,0,0,0,0,0,0,0],"id":109,"left_children":[1,3,5,-1,-1,-1,7,-1,-1],"loss_changes":[4.4851612E1,2.1500778E-1,1.2158108E0,0E0,0E0,0E0,1.14393055E-1,0E0,0E0],"parents":[2147483647,0,0,1,1,2,2,6,6],"right_children":[2,4,6,-1,-1,-1,8,-1,-1],"split_conditions":[5E0,3E1,2.1E1,-5.0915428E-2,-2.069055E-3,5.7045218E-2,3.1E1,-2.866906E-2,7.16193E-3],"split_indices":[16,2,0,0,0,0,2,0,0],"split_type":[0,0,0,0,0,0,0,0,0],"sum_hessian":[1.6583961E2,6.570152E1,1.0013809E2,6.470009E1,1.0014356E0,9.807838E1,2.0597112E0,1.0515481E0,1.0081631E0],"tree_param":{"num_deleted":"0","num_feature":"30","num_nodes":"9","size_leaf_vector":"1"}},{"base_weights":[-4.451334E-1,-5.0446566E-2,1.6692467E-1,4.7030065E-2,-2.9981954E-2],"categories":[],"categories_nodes":[],"categories_segments":[],"categories_sizes":[],"default_left":[0,0,0,0,0],"id":110,"left_children":[1,-1,3,-1,-1],"loss_changes":[2.705885E0,0E0,1.1507818E0,0E0,0E0],"parents":[2147483647,0,0,2,2],"right_children":[2,-1,4,-1,-1],"split_conditions":[2E1,-5.0446566E-2,3E1,4.7030065E-2,-2.9981954E-2],"split_indices":[0,0,0,0,0],"split_type":[0,0,0,0,0],"sum_hessian":[7.119312E1,6.506188E1,6.1312413E0,3.7113233E0,2.419918E0],"tree_param":{"num_deleted":"0","num_feature":"30","num_nodes":"5","size_leaf_vector":"1"}},{"base_weights":[3.189245E-1,5.252491E-1,-5.0962593E-2,5.5102665E-2,-4.1968476E-2],"categories":[],"categories_nodes":[],"categories_segments":[],"categories_sizes":[],"default_left":[0,0,0,0,0],"id":111,"left_children":[1,3,-1,-1,-1],"loss_changes":[3.0124634E1,3.6492844E0,0E0,0E0,0E0],"parents":[2147483647,0,0,1,1],"right_children":[2,4,-1,-1,-1],"split_conditions":[5E0,2E1,-5.0962593E-2,5.5102665E-2,-4.1968476E-2],"split_indices":[16,0,0,0,0],"split_type":[0,0,0,0,0],"sum_hessian":[1.7365276E2,1.3932442E2,3.4328335E1,1.3603041E2,3.2940047E0],"tree_param":{"num_deleted":"0","num_feature":"30","num_nodes":"5","size_leaf_vector":"1"}},{"base_weights":[-4.8614296E-1,-5.0379302E-2,2.6434166E-2],"categories":[],"categories_nodes":[],"categories_segments":[],"categories_sizes":[],"default_left":[0,0,0],"id":112,"left_children":[1,-1,-1],"loss_changes":[9.184656E-1,0E0,0E0],"parents":[2147483647,0,0],"right_children":[2,-1,-1],"split_conditions":[6.5E1,-5.0379302E-2,2.6434166E-2],"split_indices":[1,0,0],"split_type":[0,0,0],"sum_hessian":[5.8284996E1,5.7266895E1,1.0181023E0],"tree_param":{"num_deleted":"0","num_feature":"30","num_nodes":"3","size_leaf_vector":"1"}},{"base_weights":[-3.744164E-1,-5.020193E-2,3.837638E-1,5.3602E-2,-3.423046E-2],"categories":[],"categories_nodes":[],"categories_segments":[],"categories_sizes":[],"default_left":[0,0,0,0,0],"id":113,"left_children":[1,-1,3,-1,-1],"loss_changes":[5.7380447E0,0E0,1.1589545E0,0E0,0E0],"parents":[2147483647,0,0,2,2],"right_children":[2,-1,4,-1,-1],"split_conditions":[3E1,-5.020193E-2,1.22E2,5.3602E-2,-3.423046E-2],"split_indices":[0,0,0,0,0],"split_type":[0,0,0,0,0],"sum_hessian":[5.631906E1,4.849512E1,7.8239393E0,6.6840477E0,1.1398916E0],"tree_param":{"num_deleted":"0","num_feature":"30","num_nodes":"5","size_leaf_vector":"1"}},{"base_weights":[1.4616057E-1,-4.9899888E-1,5.509806E-1,-5.067959E-2,-2.533363E-3,5.6257177E-2,8.57768E-2,-2.2620829E-2,4.095365E-2],"categories":[],"categories_nodes":[],"categories_segments":[],"categories_sizes":[],"default_left":[0,0,0,0,0,0,0,0,0],"id":114,"left_children":[1,3,5,-1,-1,-1,7,-1,-1],"loss_changes":[4.038788E1,2.0779133E-1,4.6318245E-1,0E0,0E0,0E0,4.4472355E-1,0E0,0E0],"parents":[2147483647,0,0,1,1,2,2,6,6],"right_children":[2,4,6,-1,-1,-1,8,-1,-1],"split_conditions":[5E0,2.1E1,2E1,-5.067959E-2,-2.533363E-3,5.6257177E-2,6.8E1,-2.2620829E-2,4.095365E-2],"split_indices":[16,5,0,0,0,0,0,0,0],"split_type":[0,0,0,0,0,0,0,0,0],"sum_hessian":[1.5258733E2,5.874041E1,9.384691E1,5.7720333E1,1.0200771E0,9.136122E1,2.485687E0,1.4193065E0,1.0663805E0],"tree_param":{"num_deleted":"0","num_feature":"30","num_nodes":"9","size_leaf_vector":"1"}},{"base_weights":[-4.3572798E-1,-5.0124235E-2,7.222059E-2,3.3488464E-1,-2.419615E-1,7.2003454E-3,4.3214083E-2,4.8161424E-3,-3.547408E-2],"categories":[],"categories_nodes":[],"categories_segments":[],"categories_sizes":[],"default_left":[0,0,0,0,0,0,0,0,0],"id":115,"left_children":[1,-1,3,5,7,-1,-1,-1,-1],"loss_changes":[1.9758053E0,0E0,7.026638E-1,8.45027E-2,1.4830923E-1,0E0,0E0,0E0,0E0],"parents":[2147483647,0,0,2,2,3,3,4,4],"right_children":[2,-1,4,6,8,-1,-1,-1,-1],"split_conditions":[1.6E1,-5.0124235E-2,2.6E1,2.1E1,2.7777778E-2,7.2003454E-3,4.3214083E-2,4.8161424E-3,-3.547408E-2],"split_indices":[2,0,2,2,8,0,0,0,0],"split_type":[0,0,0,0,0,0,0,0,0],"sum_hessian":[5.728505E1,5.0752304E1,6.5327435E0,3.5222015E0,3.0105417E0,1.4211676E0,2.101034E0,1.0030838E0,2.0074577E0],"tree_param":{"num_deleted":"0","num_feature":"30","num_nodes":"9","size_leaf_vector":"1"}},{"base_weights":[3.5889366E-1,5.3421617E-1,-5.0673198E-2,5.4616522E-2,-3.5591953E-2],"categories":[],"categories_nodes":[],"categories_segments":[],"categories_sizes":[],"default_left":[0,0,0,0,0],"id":116,"left_children":[1,3,-1,-1,-1],"loss_changes":[3.0351645E1,1.9527054E0,0E0,0E0,0E0],"parents":[2147483647,0,0,1,1],"right_children":[2,4,-1,-1,-1],"split_conditions":[5E0,2E1,-5.0673198E-2,5.4616522E-2,-3.5591953E-2],"split_indices":[16,0,0,0,0],"split_type":[0,0,0,0,0],"sum_hessian":[1.9720915E2,1.6431242E2,3.289673E1,1.6251723E2,1.795189E0],"tree_param":{"num_deleted":"0","num_feature":"30","num_nodes":"5","size_leaf_vector":"1"}},{"base_weights":[-4.8712623E-1,-5.035746E-2,2.665943E-2],"categories":[],"categories_nodes":[],"categories_segments":[],"categories_sizes":[],"default_left":[0,0,0],"id":117,"left_children":[1,-1,-1],"loss_changes":[9.2472744E-1,0E0,0E0],"parents":[2147483647,0,0],"right_children":[2,-1,-1],"split_conditions":[8E0,-5.035746E-2,2.665943E-2],"split_indices":[6,0,0],"split_type":[0,0,0],"sum_hessian":[6.276103E1,6.174544E1,1.015585E0],"tree_param":{"num_deleted":"0","num_feature":"30","num_nodes":"3","size_leaf_vector":"1"}},{"base_weights":[-4.0972513E-1,-5.028168E-2,3.3069885E-1,5.009153E-2,-3.52165E-2],"categories":[],"categories_nodes":[],"categories_segments":[],"categories_sizes":[],"default_left":[0,0,0,0,0],"id":118,"left_children":[1,-1,3,-1,-1],"loss_changes":[4.837719E0,0E0,1.1263392E0,0E0,0E0],"parents":[2147483647,0,0,2,2],"right_children":[2,-1,4,-1,-1],"split_conditions":[3E1,-5.028168E-2,8.3E1,5.009153E-2,-3.52165E-2],"split_indices":[0,0,0,0,0],"split_type":[0,0,0,0,0],"sum_hessian":[6.6773384E1,5.9600826E1,7.172559E0,5.9546914E0,1.2178674E0],"tree_param":{"num_deleted":"0","num_feature":"30","num_nodes":"5","size_leaf_vector":"1"}},{"base_weights":[2.2215936E-1,-4.9568746E-2,5.4131526E-1,5.552913E-2,-6.4862515E-3],"categories":[],"categories_nodes":[],"categories_segments":[],"categories_sizes":[],"default_left":[0,0,0,0,0],"id":119,"left_children":[1,-1,3,-1,-1],"loss_changes":[2.9668848E1,0E0,7.9265404E-1,0E0,0E0],"parents":[2147483647,0,0,2,2],"right_children":[2,-1,4,-1,-1],"split_conditions":[5E0,-4.9568746E-2,1.6E1,5.552913E-2,-6.4862515E-3],"split_indices":[16,0,1,0,0],"split_type":[0,0,0,0,0],"sum_hessian":[1.27327705E2,3.901712E1,8.8310585E1,8.640244E1,1.9081484E0],"tree_param":{"num_deleted":"0","num_feature":"30","num_nodes":"5","size_leaf_vector":"1"}},{"base_weights":[-4.2948693E-1,-5.0044727E-2,1.1203019E-1,2.5587806E-1,-3.137213E-2,3.3608133E-1,2.2777934E-3,4.1066747E-2,7.1991095E-3],"categories":[],"categories_nodes":[],"categories_segments":[],"categories_sizes":[],"default_left":[0,0,0,0,0,0,0,0,0],"id":120,"left_children":[1,-1,3,5,-1,7,-1,-1,-1],"loss_changes":[2.3579998E0,0E0,5.553756E-1,1.11046344E-1,0E0,6.205219E-2,0E0,0E0,0E0],"parents":[2147483647,0,0,2,2,3,3,5,5],"right_children":[2,-1,4,6,-1,8,-1,-1,-1],"split_conditions":[1.6E1,-5.0044727E-2,2.9E1,4E0,-3.137213E-2,8E0,2.2777934E-3,4.1066747E-2,7.1991095E-3],"split_indices":[2,0,1,3,0,16,0,0,0],"split_type":[0,0,0,0,0,0,0,0,0],"sum_hessian":[5.8905285E1,5.21477E1,6.7575846E0,5.3492427E0,1.4083419E0,3.651183E0,1.6980597E0,2.4142945E0,1.2368884E0],"tree_param":{"num_deleted":"0","num_feature":"30","num_nodes":"9","size_leaf_vector":"1"}},{"base_weights":[2.9673478E-1,5.140696E-1,-5.0448086E-2,5.400872E-2,-4.0591028E-2],"categories":[],"categories_nodes":[],"categories_segments":[],"categories_sizes":[],"default_left":[0,0,0,0,0],"id":121,"left_children":[1,3,-1,-1,-1],"loss_changes":[2.7291862E1,3.1540222E0,0E0,0E0,0E0],"parents":[2147483647,0,0,1,1],"right_children":[2,4,-1,-1,-1],"split_conditions":[5E0,2E1,-5.0448086E-2,5.400872E-2,-4.0591028E-2],"split_indices":[16,0,0,0,0],"split_type":[0,0,0,0,0],"sum_hessian":[1.542415E2,1.2161189E2,3.2629616E1,1.1866881E2,2.9430873E0],"tree_param":{"num_deleted":"0","num_feature":"30","num_nodes":"5","size_leaf_vector":"1"}},{"base_weights":[-4.8011E-1,-5.0032515E-2,2.5959356E-2],"categories":[],"categories_nodes":[],"categories_segments":[],"categories_sizes":[],"default_left":[0,0,0],"id":122,"left_children":[1,-1,-1],"loss_changes":[8.856449E-1,0E0,0E0],"parents":[2147483647,0,0],"right_children":[2,-1,-1],"split_conditions":[1.05E2,-5.0032515E-2,2.5959356E-2],"split_indices":[1,0,0],"split_type":[0,0,0],"sum_hessian":[4.95418E1,4.8538906E1,1.002894E0],"tree_param":{"num_deleted":"0","num_feature":"30","num_nodes":"3","size_leaf_vector":"1"}},{"base_weights":[-4.1005823E-1,-5.0389774E-2,3.0700943E-1,4.6067536E-2,-3.371867E-2],"categories":[],"categories_nodes":[],"categories_segments":[],"categories_sizes":[],"default_left":[0,0,0,0,0],"id":123,"left_children":[1,-1,3,-1,-1],"loss_changes":[4.4372835E0,0E0,9.4591826E-1,0E0,0E0],"parents":[2147483647,0,0,2,2],"right_children":[2,-1,4,-1,-1],"split_conditions":[2E1,-5.0389774E-2,8.3E1,4.6067536E-2,-3.371867E-2],"split_indices":[1,0,0,0,0],"split_type":[0,0,0,0,0],"sum_hessian":[6.264436E1,5.565793E1,6.986429E0,5.8708787E0,1.1155505E0],"tree_param":{"num_deleted":"0","num_feature":"30","num_nodes":"5","size_leaf_vector":"1"}},{"base_weights":[1.7745376E-1,-4.950014E-2,5.335811E-1,5.4794736E-2,7.762458E-2,-2.2779452E-2,4.1670434E-2],"categories":[],"categories_nodes":[],"categories_segments":[],"categories_sizes":[],"default_left":[0,0,0,0,0,0,0],"id":124,"left_children":[1,-1,3,-1,5,-1,-1],"loss_changes":[2.8622318E1,0E0,4.6773148E-1,0E0,4.6199465E-1,0E0,0E0],"parents":[2147483647,0,0,2,2,4,4],"right_children":[2,-1,4,-1,6,-1,-1],"split_conditions":[5E0,-4.950014E-2,2.1E1,5.4794736E-2,6.8E1,-2.2779452E-2,4.1670434E-2],"split_indices":[16,0,0,0,0,0,0],"split_type":[0,0,0,0,0,0,0],"sum_hessian":[1.174159E2,4.051803E1,7.689787E1,7.4353386E1,2.5444825E0,1.5113568E0,1.0331256E0],"tree_param":{"num_deleted":"0","num_feature":"30","num_nodes":"7","size_leaf_vector":"1"}},{"base_weights":[-4.3943083E-1,-4.9906205E-2,1.6180676E-1,4.2574693E-2,-3.2394763E-2],"categories":[],"categories_nodes":[],"categories_segments":[],"categories_sizes":[],"default_left":[0,0,0,0,0],"id":125,"left_children":[1,-1,3,-1,-1],"loss_changes":[2.060894E0,0E0,8.7367415E-1,0E0,0E0],"parents":[2147483647,0,0,2,2],"right_children":[2,-1,4,-1,-1],"split_conditions":[2E1,-4.9906205E-2,3E1,4.2574693E-2,-3.2394763E-2],"split_indices":[0,0,0,0,0],"split_type":[0,0,0,0,0],"sum_hessian":[5.4230183E1,4.949152E1,4.7386637E0,3.1503952E0,1.5882683E0],"tree_param":{"num_deleted":"0","num_feature":"30","num_nodes":"5","size_leaf_vector":"1"}},{"base_weights":[3.4270686E-1,5.224313E-1,-5.0093055E-2,5.3388906E-1,-3.2608002E-2,5.3618353E-2,1.3924635E-2],"categories":[],"categories_nodes":[],"categories_segments":[],"categories_sizes":[],"default_left":[0,0,0,0,0,0,0],"id":126,"left_children":[1,3,-1,5,-1,-1,-1],"loss_changes":[2.5516972E1,1.5138168E0,0E0,4.8805237E-2,0E0,0E0,0E0],"parents":[2147483647,0,0,1,1,3,3],"right_children":[2,4,-1,6,-1,-1,-1],"split_conditions":[5E0,2E1,-5.0093055E-2,1.5E1,-3.2608002E-2,5.3618353E-2,1.3924635E-2],"split_indices":[16,1,0,5,0,0,0],"split_type":[0,0,0,0,0,0,0],"sum_hessian":[1.6556702E2,1.3680374E2,2.8763268E1,1.3534691E2,1.456841E0,1.3420795E2,1.1389536E0],"tree_param":{"num_deleted":"0","num_feature":"30","num_nodes":"7","size_leaf_vector":"1"}},{"base_weights":[-4.800913E-1,-4.9984302E-2,2.6011178E-2],"categories":[],"categories_nodes":[],"categories_segments":[],"categories_sizes":[],"default_left":[0,0,0],"id":127,"left_children":[1,-1,-1],"loss_changes":[8.857279E-1,0E0,0E0],"parents":[2147483647,0,0],"right_children":[2,-1,-1],"split_conditions":[5E0,-4.9984302E-2,2.6011178E-2],"split_indices":[6,0,0],"split_type":[0,0,0],"sum_hessian":[5.0689457E1,4.968829E1,1.0011677E0],"tree_param":{"num_deleted":"0","num_feature":"30","num_nodes":"3","size_leaf_vector":"1"}},{"base_weights":[-3.9364293E-1,-4.995961E-2,3.6017945E-1,5.3465333E-2,-3.4410954E-2],"categories":[],"categories_nodes":[],"categories_segments":[],"categories_sizes":[],"default_left":[0,0,0,0,0],"id":128,"left_children":[1,-1,3,-1,-1],"loss_changes":[4.9360075E0,0E0,1.1571078E0,0E0,0E0],"parents":[2147483647,0,0,2,2],"right_children":[2,-1,4,-1,-1],"split_conditions":[3E1,-4.995961E-2,1.22E2,5.3465333E-2,-3.4410954E-2],"split_indices":[0,0,0,0,0],"split_type":[0,0,0,0,0],"sum_hessian":[5.854762E1,5.1628277E1,6.919342E0,5.7385817E0,1.1807604E0],"tree_param":{"num_deleted":"0","num_feature":"30","num_nodes":"5","size_leaf_vector":"1"}},{"base_weights":[1.312024E-1,-4.9303908E-2,5.2698666E-1,5.418207E-2,4.153371E-2,-2.959756E-2,3.730124E-2],"categories":[],"categories_nodes":[],"categories_segments":[],"categories_sizes":[],"default_left":[0,0,0,0,0,0,0],"id":129,"left_children":[1,-1,3,-1,5,-1,-1],"loss_changes":[2.9060339E1,0E0,4.9471092E-1,0E0,4.6982425E-1,0E0,0E0],"parents":[2147483647,0,0,2,2,4,4],"right_children":[2,-1,4,-1,6,-1,-1],"split_conditions":[5E0,-4.9303908E-2,2.3E1,5.418207E-2,7.3E1,-2.959756E-2,3.730124E-2],"split_indices":[18,0,0,0,0,0,0],"split_type":[0,0,0,0,0,0,0],"sum_hessian":[1.1557061E2,4.474767E1,7.082294E1,6.861029E1,2.212647E0,1.1494204E0,1.0632267E0],"tree_param":{"num_deleted":"0","num_feature":"30","num_nodes":"7","size_leaf_vector":"1"}},{"base_weights":[-4.3637905E-1,-4.974817E-2,1.6626288E-1,3.9640823E-1,-2.760742E-2,4.684883E-2,1.4841658E-2],"categories":[],"categories_nodes":[],"categories_segments":[],"categories_sizes":[],"default_left":[0,0,0,0,0,0,0],"id":130,"left_children":[1,-1,3,5,-1,-1,-1],"loss_changes":[1.9791994E0,0E0,6.684034E-1,2.36547E-3,0E0,0E0,0E0],"parents":[2147483647,0,0,2,2,3,3],"right_children":[2,-1,4,6,-1,-1,-1],"split_conditions":[2E1,-4.974817E-2,2.6E1,8E0,-2.760742E-2,4.684883E-2,1.4841658E-2],"split_indices":[0,0,1,16,0,0,0],"split_type":[0,0,0,0,0,0,0],"sum_hessian":[5.0502728E1,4.601201E1,4.49072E0,3.022147E0,1.4685729E0,1.6526629E0,1.3694841E0],"tree_param":{"num_deleted":"0","num_feature":"30","num_nodes":"7","size_leaf_vector":"1"}},{"base_weights":[2.8410277E-1,5.03671E-1,-4.9803253E-2,5.3066384E-2,-3.825214E-2],"categories":[],"categories_nodes":[],"categories_segments":[],"categories_sizes":[],"default_left":[0,0,0,0,0],"id":131,"left_children":[1,3,-1,-1,-1],"loss_changes":[2.1570812E1,2.5336342E0,0E0,0E0,0E0],"parents":[2147483647,0,0,1,1],"right_children":[2,4,-1,-1,-1],"split_conditions":[5E0,2E1,-4.9803253E-2,5.3066384E-2,-3.825214E-2],"split_indices":[16,0,0,0,0],"split_type":[0,0,0,0,0],"sum_hessian":[1.23146675E2,9.643155E1,2.6715126E1,9.397046E1,2.4610922E0],"tree_param":{"num_deleted":"0","num_feature":"30","num_nodes":"5","size_leaf_vector":"1"}},{"base_weights":[-4.9426278E-1],"categories":[],"categories_nodes":[],"categories_segments":[],"categories_sizes":[],"default_left":[0],"id":132,"left_children":[-1],"loss_changes":[0E0],"parents":[2147483647],"right_children":[-1],"split_conditions":[-4.942628E-2],"split_indices":[0],"split_type":[0],"sum_hessian":[4.7867565E1],"tree_param":{"num_deleted":"0","num_feature":"30","num_nodes":"1","size_leaf_vector":"1"}},{"base_weights":[-3.8989726E-1,-4.9734555E-2,3.3172062E-1,4.950815E-2,-3.2720026E-2],"categories":[],"categories_nodes":[],"categories_segments":[],"categories_sizes":[],"default_left":[0,0,0,0,0],"id":133,"left_children":[1,-1,3,-1,-1],"loss_changes":[4.23021E0,0E0,9.579886E-1,0E0,0E0],"parents":[2147483647,0,0,2,2],"right_children":[2,-1,4,-1,-1],"split_conditions":[2.6E1,-4.9734555E-2,8.8E1,4.950815E-2,-3.2720026E-2],"split_indices":[2,0,1,0,0],"split_type":[0,0,0,0,0],"sum_hessian":[5.1429817E1,4.5034946E1,6.3948717E0,5.3236666E0,1.0712049E0],"tree_param":{"num_deleted":"0","num_feature":"30","num_nodes":"5","size_leaf_vector":"1"}},{"base_weights":[1.3223986E-1,-4.8691812E-1,5.2363926E-1,-4.981452E-2,-7.684629E-3,5.3532947E-2,-2.0655666E-3],"categories":[],"categories_nodes":[],"categories_segments":[],"categories_sizes":[],"default_left":[0,0,0,0,0,0,0],"id":134,"left_children":[1,3,5,-1,-1,-1,-1],"loss_changes":[2.6766708E1,1.5917969E-1,4.4062042E-1,0E0,0E0,0E0,0E0],"parents":[2147483647,0,0,1,1,2,2],"right_children":[2,4,6,-1,-1,-1,-1],"split_conditions":[5E0,3E1,2.3E1,-4.981452E-2,-7.684629E-3,5.3532947E-2,-2.0655666E-3],"split_indices":[16,0,0,0,0,0,0],"split_type":[0,0,0,0,0,0,0],"sum_hessian":[1.0839981E2,4.1889854E1,6.650996E1,4.0564495E1,1.32536E0,6.512763E1,1.3823209E0],"tree_param":{"num_deleted":"0","num_feature":"30","num_nodes":"7","size_leaf_vector":"1"}},{"base_weights":[-4.311735E-1,-4.954238E-2,7.515933E-2,3.4178922E-1,-2.8039485E-2,1.1332851E-2,3.9406996E-2],"categories":[],"categories_nodes":[],"categories_segments":[],"categories_sizes":[],"default_left":[0,0,0,0,0,0,0],"id":135,"left_children":[1,-1,3,5,-1,-1,-1],"loss_changes":[1.5695143E0,0E0,6.809521E-1,2.8510988E-3,0E0,0E0,0E0],"parents":[2147483647,0,0,2,2,3,3],"right_children":[2,-1,4,6,-1,-1,-1],"split_conditions":[2E1,-4.954238E-2,3E1,2.3E1,-2.8039485E-2,1.1332851E-2,3.9406996E-2],"split_indices":[0,0,0,0,0,0,0],"split_type":[0,0,0,0,0,0,0],"sum_hessian":[4.610063E1,4.092861E1,5.1720223E0,2.977735E0,2.1942875E0,1.1444246E0,1.8333105E0],"tree_param":{"num_deleted":"0","num_feature":"30","num_nodes":"7","size_leaf_vector":"1"}},{"base_weights":[3.327094E-1,5.0547117E-1,-4.946382E-2,5.256423E-1,-3.74193E-2,5.280734E-2,1.3246496E-2],"categories":[],"categories_nodes":[],"categories_segments":[],"categories_sizes":[],"default_left":[0,0,0,0,0,0,0],"id":136,"left_children":[1,3,-1,5,-1,-1,-1],"loss_changes":[2.0679253E1,2.303463E0,0E0,4.139328E-2,0E0,0E0,0E0],"parents":[2147483647,0,0,1,1,3,3],"right_children":[2,4,-1,6,-1,-1,-1],"split_conditions":[5E0,2E1,-4.946382E-2,1.5E1,-3.74193E-2,5.280734E-2,1.3246496E-2],"split_indices":[16,2,0,2,0,0,0],"split_type":[0,0,0,0,0,0,0],"sum_hessian":[1.4192766E2,1.17732506E2,2.419515E1,1.15486786E2,2.2457163E0,1.1443612E2,1.0506713E0],"tree_param":{"num_deleted":"0","num_feature":"30","num_nodes":"7","size_leaf_vector":"1"}},{"base_weights":[-4.7419387E-1,-4.9657546E-2,2.423162E-2],"categories":[],"categories_nodes":[],"categories_segments":[],"categories_sizes":[],"default_left":[0,0,0],"id":137,"left_children":[1,-1,-1],"loss_changes":[8.399019E-1,0E0,0E0],"parents":[2147483647,0,0],"right_children":[2,-1,-1],"split_conditions":[2.9E1,-4.9657546E-2,2.423162E-2],"split_indices":[7,0,0],"split_type":[0,0,0],"sum_hessian":[4.38707E1,4.283948E1,1.0312202E0],"tree_param":{"num_deleted":"0","num_feature":"30","num_nodes":"3","size_leaf_vector":"1"}},{"base_weights":[-3.7739468E-1,-4.9939033E-2,3.033649E-1,4.5927543E-2,-3.383576E-2],"categories":[],"categories_nodes":[],"categories_segments":[],"categories_sizes":[],"default_left":[0,0,0,0,0],"id":138,"left_children":[1,-1,3,-1,-1],"loss_changes":[4.2219195E0,0E0,9.6286196E-1,0E0,0E0],"parents":[2147483647,0,0,2,2],"right_children":[2,-1,4,-1,-1],"split_conditions":[2E1,-4.9939033E-2,1.22E2,4.5927543E-2,-3.383576E-2],"split_indices":[1,0,0,0,0],"split_type":[0,0,0,0,0],"sum_hessian":[4.8011883E1,4.0941395E1,7.070488E0,5.91718E0,1.1533079E0],"tree_param":{"num_deleted":"0","num_feature":"30","num_nodes":"5","size_leaf_vector":"1"}},{"base_weights":[-2.3456167E-2,-4.9657255E-2,4.8437762E-1,5.1997747E-2,3.1137695E-3,-3.0829668E-2,3.4883935E-2],"categories":[],"categories_nodes":[],"categories_segments":[],"categories_sizes":[],"default_left":[0,0,0,0,0,0,0],"id":139,"left_children":[1,-1,3,-1,5,-1,-1],"loss_changes":[1.6890974E1,0E0,5.7970333E-1,0E0,4.674639E-1,0E0,0E0],"parents":[2147483647,0,0,2,2,4,4],"right_children":[2,-1,4,-1,6,-1,-1],"split_conditions":[5E0,-4.9657255E-2,2.3E1,5.1997747E-2,7.3E1,-3.0829668E-2,3.4883935E-2],"split_indices":[16,0,0,0,0,0,0],"split_type":[0,0,0,0,0,0,0],"sum_hessian":[6.8300476E1,3.537035E1,3.2930126E1,3.0587109E1,2.3430185E0,1.2896421E0,1.0533763E0],"tree_param":{"num_deleted":"0","num_feature":"30","num_nodes":"7","size_leaf_vector":"1"}},{"base_weights":[-4.200338E-1,-4.914621E-2,5.186002E-2,2.2523876E-1,-1.871178E-1,-2.654434E-3,3.353747E-2,-1.439582E-3,-2.6598556E-2],"categories":[],"categories_nodes":[],"categories_segments":[],"categories_sizes":[],"default_left":[0,0,0,0,0,0,0,0,0],"id":140,"left_children":[1,-1,3,5,7,-1,-1,-1,-1],"loss_changes":[1.3096294E0,0E0,2.8714725E-1,1.165144E-1,3.747928E-2,0E0,0E0,0E0,0E0],"parents":[2147483647,0,0,2,2,3,3,4,4],"right_children":[2,-1,4,6,8,-1,-1,-1,-1],"split_conditions":[1.6E1,-4.914621E-2,2.6E1,1E0,9.52381E-2,-2.654434E-3,3.353747E-2,-1.439582E-3,-2.6598556E-2],"split_indices":[2,0,2,3,8,0,0,0,0],"split_type":[0,0,0,0,0,0,0,0,0],"sum_hessian":[3.709767E1,3.218458E1,4.9130907E0,2.8806593E0,2.0324311E0,1.107584E0,1.7730753E0,1.0078187E0,1.0246125E0],"tree_param":{"num_deleted":"0","num_feature":"30","num_nodes":"9","size_leaf_vector":"1"}},{"base_weights":[3.2273352E-1,4.9886754E-1,-4.9223073E-2,5.2133E-1,-3.7366632E-2,5.239519E-2,1.3672287E-2],"categories":[],"categories_nodes":[],"categories_segments":[],"categories_sizes":[],"default_left":[0,0,0,0,0,0,0],"id":141,"left_children":[1,3,-1,5,-1,-1,-1],"loss_changes":[1.9175032E1,2.3298283E0,0E0,3.5873413E-2,0E0,0E0,0E0],"parents":[2147483647,0,0,1,1,3,3],"right_children":[2,4,-1,6,-1,-1,-1],"split_conditions":[5E0,2E1,-4.9223073E-2,1.6E1,-3.7366632E-2,5.239519E-2,1.3672287E-2],"split_indices":[18,2,0,2,0,0,0],"split_type":[0,0,0,0,0,0,0],"sum_hessian":[1.3087326E2,1.0793392E2,2.2939339E1,1.05617424E2,2.316497E0,1.0454246E2,1.0749689E0],"tree_param":{"num_deleted":"0","num_feature":"30","num_nodes":"7","size_leaf_vector":"1"}},{"base_weights":[-4.692423E-1,-4.9448993E-2,2.3755854E-2],"categories":[],"categories_nodes":[],"categories_segments":[],"categories_sizes":[],"default_left":[0,0,0],"id":142,"left_children":[1,-1,-1],"loss_changes":[8.251772E-1,0E0,0E0],"parents":[2147483647,0,0],"right_children":[2,-1,-1],"split_conditions":[3E0,-4.9448993E-2,2.3755854E-2],"split_indices":[6,0,0],"split_type":[0,0,0],"sum_hessian":[3.8658546E1,3.7615276E1,1.0432726E0],"tree_param":{"num_deleted":"0","num_feature":"30","num_nodes":"3","size_leaf_vector":"1"}},{"base_weights":[-3.8186994E-1,-4.9355038E-2,2.7821442E-1,4.33678E-2,-3.1580206E-2],"categories":[],"categories_nodes":[],"categories_segments":[],"categories_sizes":[],"default_left":[0,0,0,0,0],"id":143,"left_children":[1,-1,3,-1,-1],"loss_changes":[3.3654652E0,0E0,7.812037E-1,0E0,0E0],"parents":[2147483647,0,0,2,2],"right_children":[2,-1,4,-1,-1],"split_conditions":[2.6E1,-4.9355038E-2,8.7E1,4.33678E-2,-3.1580206E-2],"split_indices":[2,0,2,0,0],"split_type":[0,0,0,0,0],"sum_hessian":[4.2790264E1,3.681396E1,5.976303E0,4.95058E0,1.0257232E0],"tree_param":{"num_deleted":"0","num_feature":"30","num_nodes":"5","size_leaf_vector":"1"}},{"base_weights":[1.5673742E-1,-4.7475943E-1,5.013734E-1,-4.908391E-2,-3.9221947E-3,5.2641E-2,-2.5771243E-2,-3.2781523E-2,3.3552498E-2],"categories":[],"categories_nodes":[],"categories_segments":[],"categories_sizes":[],"default_left":[0,0,0,0,0,0,0,0,0],"id":144,"left_children":[1,3,5,-1,-1,-1,7,-1,-1],"loss_changes":[1.827432E1,1.8925858E-1,7.2757626E-1,0E0,0E0,0E0,4.8171082E-1,0E0,0E0],"parents":[2147483647,0,0,1,1,2,2,6,6],"right_children":[2,4,6,-1,-1,-1,8,-1,-1],"split_conditions":[5E0,3E1,2E1,-4.908391E-2,-3.9221947E-3,5.2641E-2,7.3E1,-3.2781523E-2,3.3552498E-2],"split_indices":[16,0,0,0,0,0,0,0,0],"split_type":[0,0,0,0,0,0,0,0,0],"sum_hessian":[8.187344E1,2.8773146E1,5.31003E1,2.7626236E1,1.1469096E0,5.0694E1,2.4063013E0,1.3610941E0,1.045207E0],"tree_param":{"num_deleted":"0","num_feature":"30","num_nodes":"9","size_leaf_vector":"1"}},{"base_weights":[-4.075033E-1,-4.912401E-2,1.2901512E-1,3.510543E-2,-2.4670286E-2],"categories":[],"categories_nodes":[],"categories_segments":[],"categories_sizes":[],"default_left":[0,0,0,0,0],"id":145,"left_children":[1,-1,3,-1,-1],"loss_changes":[1.8089619E0,0E0,5.90278E-1,0E0,0E0],"parents":[2147483647,0,0,2,2],